{"learner":{"attributes":{"best_iteration":"499","best_ntree_limit":"500"},"feature_names":[],"feature_types":[],"gradient_booster":{"model":{"gbtree_model_param":{"num_parallel_tree":"1","num_trees":"1000","size_leaf_vector":"0"},"tree_info":[0,1,0,1,0,1,0,1,0,1,0,1,0,1,0,1,0,1,0,1,0,1,0,1,0,1,0,1,0,1,0,1,0,1,0,1,0,1,0,1,0,1,0,1,0,1,0,1,0,1,0,1,0,1,0,1,0,1,0,1,0,1,0,1,0,1,0,1,0,1,0,1,0,1,0,1,0,1,0,1,0,1,0,1,0,1,0,1,0,1,0,1,0,1,0,1,0,1,0,1,0,1,0,1,0,1,0,1,0,1,0,1,0,1,0,1,0,1,0,1,0,1,0,1,0,1,0,1,0,1,0,1,0,1,0,1,0,1,0,1,0,1,0,1,0,1,0,1,0,1,0,1,0,1,0,1,0,1,0,1,0,1,0,1,0,1,0,1,0,1,0,1,0,1,0,1,0,1,0,1,0,1,0,1,0,1,0,1,0,1,0,1,0,1,0,1,0,1,0,1,0,1,0,1,0,1,0,1,0,1,0,1,0,1,0,1,0,1,0,1,0,1,0,1,0,1,0,1,0,1,0,1,0,1,0,1,0,1,0,1,0,1,0,1,0,1,0,1,0,1,0,1,0,1,0,1,0,1,0,1,0,1,0,1,0,1,0,1,0,1,0,1,0,1,0,1,0,1,0,1,0,1,0,1,0,1,0,1,0,1,0,1,0,1,0,1,0,1,0,1,0,1,0,1,0,1,0,1,0,1,0,1,0,1,0,1,0,1,0,1,0,1,0,1,0,1,0,1,0,1,0,1,0,1,0,1,0,1,0,1,0,1,0,1,0,1,0,1,0,1,0,1,0,1,0,1,0,1,0,1,0,1,0,1,0,1,0,1,0,1,0,1,0,1,0,1,0,1,0,1,0,1,0,1,0,1,0,1,0,1,0,1,0,1,0,1,0,1,0,1,0,1,0,1,0,1,0,1,0,1,0,1,0,1,0,1,0,1,0,1,0,1,0,1,0,1,0,1,0,1,0,1,0,1,0,1,0,1,0,1,0,1,0,1,0,1,0,1,0,1,0,1,0,1,0,1,0,1,0,1,0,1,0,1,0,1,0,1,0,1,0,1,0,1,0,1,0,1,0,1,0,1,0,1,0,1,0,1,0,1,0,1,0,1,0,1,0,1,0,1,0,1,0,1,0,1,0,1,0,1,0,1,0,1,0,1,0,1,0,1,0,1,0,1,0,1,0,1,0,1,0,1,0,1,0,1,0,1,0,1,0,1,0,1,0,1,0,1,0,1,0,1,0,1,0,1,0,1,0,1,0,1,0,1,0,1,0,1,0,1,0,1,0,1,0,1,0,1,0,1,0,1,0,1,0,1,0,1,0,1,0,1,0,1,0,1,0,1,0,1,0,1,0,1,0,1,0,1,0,1,0,1,0,1,0,1,0,1,0,1,0,1,0,1,0,1,0,1,0,1,0,1,0,1,0,1,0,1,0,1,0,1,0,1,0,1,0,1,0,1,0,1,0,1,0,1,0,1,0,1,0,1,0,1,0,1,0,1,0,1,0,1,0,1,0,1,0,1,0,1,0,1,0,1,0,1,0,1,0,1,0,1,0,1,0,1,0,1,0,1,0,1,0,1,0,1,0,1,0,1,0,1,0,1,0,1,0,1,0,1,0,1,0,1,0,1,0,1,0,1,0,1,0,1,0,1,0,1,0,1,0,1,0,1,0,1,0,1,0,1,0,1,0,1,0,1,0,1,0,1,0,1,0,1,0,1,0,1,0,1,0,1,0,1,0,1,0,1,0,1,0,1,0,1,0,1,0,1,0,1,0,1,0,1,0,1,0,1,0,1,0,1,0,1,0,1,0,1,0,1,0,1,0,1,0,1,0,1,0,1,0,1,0,1,0,1,0,1,0,1,0,1,0,1,0,1,0,1,0,1,0,1,0,1,0,1,0,1,0,1,0,1,0,1,0,1,0,1,0,1,0,1,0,1,0,1,0,1,0,1,0,1,0,1,0,1,0,1,0,1,0,1,0,1,0,1,0,1,0,1,0,1,0,1,0,1,0,1,0,1,0,1,0,1,0,1,0,1,0,1,0,1,0,1,0,1,0,1,0,1,0,1,0,1,0,1,0,1,0,1,0,1,0,1,0,1,0,1,0,1,0,1,0,1,0,1,0,1,0,1,0,1,0,1,0,1,0,1,0,1,0,1,0,1,0,1,0,1,0,1,0,1,0,1,0,1,0,1,0,1,0,1,0,1,0,1,0,1,0,1,0,1,0,1,0,1,0,1,0,1],"trees":[{"base_weights":[-1.5296382E-1,1.037158E-1,-3.189803E-1,-1.6460638E-1,2.2628605E-1,-1.5063424E-1,-4.8693585E-1],"categories":[],"categories_nodes":[],"categories_segments":[],"categories_sizes":[],"default_left":[1,1,1,0,0,0,0],"id":0,"left_children":[1,3,5,-1,-1,-1,-1],"loss_changes":[2.6566153E2,8.058074E1,1.0696036E2,0E0,0E0,0E0,0E0],"parents":[2147483647,0,0,1,1,2,2],"right_children":[2,4,6,-1,-1,-1,-1],"split_conditions":[4.6850002E-1,-2.05E0,1.25E1,-1.6460638E-3,2.2628605E-3,-1.5063424E-3,-4.8693586E-3],"split_indices":[3,77,80,0,0,0,0],"split_type":[0,0,0,0,0,0,0],"sum_hessian":[6.2325E3,2.448E3,3.7845E3,7.675E2,1.6805E3,1.891E3,1.8935E3],"tree_param":{"num_deleted":"0","num_feature":"106","num_nodes":"7","size_leaf_vector":"0"}},{"base_weights":[1.5296382E-1,-1.037158E-1,3.189803E-1,1.6460638E-1,-2.2628605E-1,1.5063424E-1,4.8693585E-1],"categories":[],"categories_nodes":[],"categories_segments":[],"categories_sizes":[],"default_left":[1,1,1,0,0,0,0],"id":1,"left_children":[1,3,5,-1,-1,-1,-1],"loss_changes":[2.6566153E2,8.058074E1,1.0696036E2,0E0,0E0,0E0,0E0],"parents":[2147483647,0,0,1,1,2,2],"right_children":[2,4,6,-1,-1,-1,-1],"split_conditions":[4.6850002E-1,-2.05E0,1.25E1,1.6460638E-3,-2.2628605E-3,1.5063424E-3,4.8693586E-3],"split_indices":[3,77,80,0,0,0,0],"split_type":[0,0,0,0,0,0,0],"sum_hessian":[6.2325E3,2.448E3,3.7845E3,7.675E2,1.6805E3,1.891E3,1.8935E3],"tree_param":{"num_deleted":"0","num_feature":"106","num_nodes":"7","size_leaf_vector":"0"}},{"base_weights":[-1.514366E-1,1.0267936E-1,-3.1579638E-1,-1.6296291E-1,2.2402571E-1,-1.0067667E-1,-4.4496405E-1],"categories":[],"categories_nodes":[],"categories_segments":[],"categories_sizes":[],"default_left":[1,1,1,0,0,0,0],"id":2,"left_children":[1,3,5,-1,-1,-1,-1],"loss_changes":[2.60381E2,7.8979E1,1.0513968E2,0E0,0E0,0E0,0E0],"parents":[2147483647,0,0,1,1,2,2],"right_children":[2,4,6,-1,-1,-1,-1],"split_conditions":[4.6850002E-1,-2.05E0,1.05E1,-1.629629E-3,2.240257E-3,-1.0067667E-3,-4.4496404E-3],"split_indices":[3,77,103,0,0,0,0],"split_type":[0,0,0,0,0,0,0],"sum_hessian":[6.23244E3,2.4479893E3,3.7844507E3,7.674979E2,1.6804913E3,1.4204952E3,2.3639556E3],"tree_param":{"num_deleted":"0","num_feature":"106","num_nodes":"7","size_leaf_vector":"0"}},{"base_weights":[1.5143658E-1,-1.02679335E-1,3.1579632E-1,1.6296291E-1,-2.240257E-1,1.0067666E-1,4.4496396E-1],"categories":[],"categories_nodes":[],"categories_segments":[],"categories_sizes":[],"default_left":[1,1,1,0,0,0,0],"id":3,"left_children":[1,3,5,-1,-1,-1,-1],"loss_changes":[2.6038095E2,7.897897E1,1.0513965E2,0E0,0E0,0E0,0E0],"parents":[2147483647,0,0,1,1,2,2],"right_children":[2,4,6,-1,-1,-1,-1],"split_conditions":[4.6850002E-1,-2.05E0,1.05E1,1.629629E-3,-2.2402569E-3,1.0067666E-3,4.4496395E-3],"split_indices":[3,77,103,0,0,0,0],"split_type":[0,0,0,0,0,0,0],"sum_hessian":[6.23244E3,2.4479893E3,3.7844507E3,7.674979E2,1.6804913E3,1.4204952E3,2.3639556E3],"tree_param":{"num_deleted":"0","num_feature":"106","num_nodes":"7","size_leaf_vector":"0"}},{"base_weights":[-1.4992711E-1,1.1173853E-1,-3.0641675E-1,-1.4963974E-1,2.3273423E-1,-5.466935E-1,-1.9077282E-1],"categories":[],"categories_nodes":[],"categories_segments":[],"categories_sizes":[],"default_left":[1,1,1,0,0,0,0],"id":4,"left_children":[1,3,5,-1,-1,-1,-1],"loss_changes":[2.5527394E2,7.3832E1,1.0828577E2,0E0,0E0,0E0,0E0],"parents":[2147483647,0,0,1,1,2,2],"right_children":[2,4,6,-1,-1,-1,-1],"split_conditions":[4.585E-1,-2.05E0,-1.45E0,-1.4963974E-3,2.3273423E-3,-5.4669348E-3,-1.9077281E-3],"split_indices":[3,77,77,0,0,0,0],"split_type":[0,0,0,0,0,0,0],"sum_hessian":[6.2322695E3,2.3324597E3,3.8998096E3,7.3799207E2,1.5944677E3,1.2658954E3,2.6339143E3],"tree_param":{"num_deleted":"0","num_feature":"106","num_nodes":"7","size_leaf_vector":"0"}},{"base_weights":[1.4992715E-1,-1.1173849E-1,3.064168E-1,1.4963962E-1,-2.3273411E-1,5.466935E-1,1.9077286E-1],"categories":[],"categories_nodes":[],"categories_segments":[],"categories_sizes":[],"default_left":[1,1,1,0,0,0,0],"id":5,"left_children":[1,3,5,-1,-1,-1,-1],"loss_changes":[2.5527396E2,7.383191E1,1.08285706E2,0E0,0E0,0E0,0E0],"parents":[2147483647,0,0,1,1,2,2],"right_children":[2,4,6,-1,-1,-1,-1],"split_conditions":[4.585E-1,-2.05E0,-1.45E0,1.4963961E-3,-2.3273411E-3,5.4669348E-3,1.9077286E-3],"split_indices":[3,77,77,0,0,0,0],"split_type":[0,0,0,0,0,0,0],"sum_hessian":[6.2322695E3,2.3324597E3,3.8998096E3,7.3799207E2,1.5944677E3,1.2658954E3,2.633914E3],"tree_param":{"num_deleted":"0","num_feature":"106","num_nodes":"7","size_leaf_vector":"0"}},{"base_weights":[-1.4843543E-1,1.0072766E-1,-3.096015E-1,-1.5969217E-1,2.1969041E-1,-1.4512084E-1,-4.7372577E-1],"categories":[],"categories_nodes":[],"categories_segments":[],"categories_sizes":[],"default_left":[1,1,1,0,0,0,0],"id":6,"left_children":[1,3,5,-1,-1,-1,-1],"loss_changes":[2.5032744E2,7.590282E1,1.0211087E2,0E0,0E0,0E0,0E0],"parents":[2147483647,0,0,1,1,2,2],"right_children":[2,4,6,-1,-1,-1,-1],"split_conditions":[4.6850002E-1,-2.05E0,1.25E1,-1.5969216E-3,2.196904E-3,-1.4512084E-3,-4.7372575E-3],"split_indices":[3,77,80,0,0,0,0],"split_type":[0,0,0,0,0,0,0],"sum_hessian":[6.231999E3,2.447906E3,3.7840933E3,7.674809E2,1.680425E3,1.890936E3,1.8931572E3],"tree_param":{"num_deleted":"0","num_feature":"106","num_nodes":"7","size_leaf_vector":"0"}},{"base_weights":[1.4843543E-1,-1.00727685E-1,3.0960152E-1,1.5969206E-1,-2.1969041E-1,1.4512084E-1,4.7372583E-1],"categories":[],"categories_nodes":[],"categories_segments":[],"categories_sizes":[],"default_left":[1,1,1,0,0,0,0],"id":7,"left_children":[1,3,5,-1,-1,-1,-1],"loss_changes":[2.5032751E2,7.590278E1,1.0211093E2,0E0,0E0,0E0,0E0],"parents":[2147483647,0,0,1,1,2,2],"right_children":[2,4,6,-1,-1,-1,-1],"split_conditions":[4.6850002E-1,-2.05E0,1.25E1,1.5969207E-3,-2.196904E-3,1.4512084E-3,4.737258E-3],"split_indices":[3,77,80,0,0,0,0],"split_type":[0,0,0,0,0,0,0],"sum_hessian":[6.2319995E3,2.447906E3,3.7840935E3,7.6748096E2,1.680425E3,1.890936E3,1.8931573E3],"tree_param":{"num_deleted":"0","num_feature":"106","num_nodes":"7","size_leaf_vector":"0"}},{"base_weights":[-1.4696112E-1,-3.498123E-1,4.7664896E-2,-1.9375163E-1,-5.0925034E-1,-2.2205189E-1,1.7345612E-1],"categories":[],"categories_nodes":[],"categories_segments":[],"categories_sizes":[],"default_left":[1,1,1,0,0,0,0],"id":8,"left_children":[1,3,5,-1,-1,-1,-1],"loss_changes":[2.4608098E2,7.583966E1,1.0798636E2,0E0,0E0,0E0,0E0],"parents":[2147483647,0,0,1,1,2,2],"right_children":[2,4,6,-1,-1,-1,-1],"split_conditions":[1.45E1,1.25E1,-1.95E0,-1.9375163E-3,-5.0925035E-3,-2.220519E-3,1.7345612E-3],"split_indices":[51,80,77,0,0,0,0],"split_type":[0,0,0,0,0,0,0],"sum_hessian":[6.2316133E3,3.0509395E3,3.1806736E3,1.5429191E3,1.5080204E3,1.011369E3,2.1693044E3],"tree_param":{"num_deleted":"0","num_feature":"106","num_nodes":"7","size_leaf_vector":"0"}},{"base_weights":[1.4696117E-1,3.4981233E-1,-4.7664825E-2,1.937516E-1,5.092504E-1,2.2205193E-1,-1.7345604E-1],"categories":[],"categories_nodes":[],"categories_segments":[],"categories_sizes":[],"default_left":[1,1,1,0,0,0,0],"id":9,"left_children":[1,3,5,-1,-1,-1,-1],"loss_changes":[2.4608089E2,7.583978E1,1.0798633E2,0E0,0E0,0E0,0E0],"parents":[2147483647,0,0,1,1,2,2],"right_children":[2,4,6,-1,-1,-1,-1],"split_conditions":[1.45E1,1.25E1,-1.95E0,1.937516E-3,5.092504E-3,2.2205194E-3,-1.7345604E-3],"split_indices":[51,80,77,0,0,0,0],"split_type":[0,0,0,0,0,0,0],"sum_hessian":[6.2316133E3,3.0509395E3,3.1806736E3,1.5429191E3,1.5080204E3,1.0113691E3,2.1693044E3],"tree_param":{"num_deleted":"0","num_feature":"106","num_nodes":"7","size_leaf_vector":"0"}},{"base_weights":[-1.4550294E-1,1.0935109E-1,-2.9794127E-1,-1.4425029E-1,2.2674929E-1,-5.2244682E-2,-4.0711486E-1],"categories":[],"categories_nodes":[],"categories_segments":[],"categories_sizes":[],"default_left":[1,1,1,0,0,0,0],"id":10,"left_children":[1,3,5,-1,-1,-1,-1],"loss_changes":[2.4214992E2,6.949951E1,1.0458844E2,0E0,0E0,0E0,0E0],"parents":[2147483647,0,0,1,1,2,2],"right_children":[2,4,6,-1,-1,-1,-1],"split_conditions":[4.585E-1,-2.05E0,8.5E0,-1.4425028E-3,2.2674927E-3,-5.224468E-4,-4.0711486E-3],"split_indices":[3,77,103,0,0,0,0],"split_type":[0,0,0,0,0,0,0],"sum_hessian":[6.2311826E3,2.332266E3,3.8989165E3,7.3794415E2,1.5943219E3,1.1999321E3,2.6989844E3],"tree_param":{"num_deleted":"0","num_feature":"106","num_nodes":"7","size_leaf_vector":"0"}},{"base_weights":[1.4550291E-1,-1.0935115E-1,2.9794127E-1,1.4425017E-1,-2.2674932E-1,5.2244682E-2,4.0711486E-1],"categories":[],"categories_nodes":[],"categories_segments":[],"categories_sizes":[],"default_left":[1,1,1,0,0,0,0],"id":11,"left_children":[1,3,5,-1,-1,-1,-1],"loss_changes":[2.4215001E2,6.9499466E1,1.0458841E2,0E0,0E0,0E0,0E0],"parents":[2147483647,0,0,1,1,2,2],"right_children":[2,4,6,-1,-1,-1,-1],"split_conditions":[4.585E-1,-2.05E0,8.5E0,1.4425017E-3,-2.2674932E-3,5.224468E-4,4.0711486E-3],"split_indices":[3,77,103,0,0,0,0],"split_type":[0,0,0,0,0,0,0],"sum_hessian":[6.2311826E3,2.332266E3,3.8989163E3,7.3794415E2,1.594322E3,1.1999321E3,2.6989844E3],"tree_param":{"num_deleted":"0","num_feature":"106","num_nodes":"7","size_leaf_vector":"0"}},{"base_weights":[-1.4406146E-1,-3.4357715E-1,4.7335878E-2,-1.9003738E-1,-5.004909E-1,-1.9820641E-1,1.8097278E-1],"categories":[],"categories_nodes":[],"categories_segments":[],"categories_sizes":[],"default_left":[1,1,1,0,0,0,0],"id":12,"left_children":[1,3,5,-1,-1,-1,-1],"loss_changes":[2.3798198E2,7.3416565E1,1.04428795E2,0E0,0E0,0E0,0E0],"parents":[2147483647,0,0,1,1,2,2],"right_children":[2,4,6,-1,-1,-1,-1],"split_conditions":[1.45E1,1.25E1,-1.45E0,-1.9003738E-3,-5.004909E-3,-1.982064E-3,1.8097277E-3],"split_indices":[51,80,77,0,0,0,0],"split_type":[0,0,0,0,0,0,0],"sum_hessian":[6.2306274E3,3.0502268E3,3.1804006E3,1.5428058E3,1.507421E3,1.1207217E3,2.059679E3],"tree_param":{"num_deleted":"0","num_feature":"106","num_nodes":"7","size_leaf_vector":"0"}},{"base_weights":[1.4406145E-1,3.4357712E-1,-4.7335885E-2,1.9003737E-1,5.0049084E-1,1.982064E-1,-1.8097278E-1],"categories":[],"categories_nodes":[],"categories_segments":[],"categories_sizes":[],"default_left":[1,1,1,0,0,0,0],"id":13,"left_children":[1,3,5,-1,-1,-1,-1],"loss_changes":[2.3798198E2,7.3416504E1,1.0442879E2,0E0,0E0,0E0,0E0],"parents":[2147483647,0,0,1,1,2,2],"right_children":[2,4,6,-1,-1,-1,-1],"split_conditions":[1.45E1,1.25E1,-1.45E0,1.9003736E-3,5.0049084E-3,1.982064E-3,-1.8097277E-3],"split_indices":[51,80,77,0,0,0,0],"split_type":[0,0,0,0,0,0,0],"sum_hessian":[6.2306274E3,3.0502268E3,3.1804006E3,1.5428058E3,1.507421E3,1.1207217E3,2.059679E3],"tree_param":{"num_deleted":"0","num_feature":"106","num_nodes":"7","size_leaf_vector":"0"}},{"base_weights":[-1.4263614E-1,-2.6069734E-1,1.7612283E-1,-1.09062485E-1,-4.2923993E-1,3.8692527E-3,3.4097826E-1],"categories":[],"categories_nodes":[],"categories_segments":[],"categories_sizes":[],"default_left":[1,1,1,0,0,0,0],"id":14,"left_children":[1,3,5,-1,-1,-1,-1],"loss_changes":[2.3453821E2,1.1616913E2,4.7838432E1,0E0,0E0,0E0,0E0],"parents":[2147483647,0,0,1,1,2,2],"right_children":[2,4,6,-1,-1,-1,-1],"split_conditions":[2.15E1,1.35E1,-5E-2,-1.0906248E-3,-4.292399E-3,3.8692528E-5,3.4097827E-3],"split_indices":[29,80,77,0,0,0,0],"split_type":[0,0,0,0,0,0,0],"sum_hessian":[6.2300166E3,4.546337E3,1.6836796E3,2.394076E3,2.1522612E3,8.2386536E2,8.5981415E2],"tree_param":{"num_deleted":"0","num_feature":"106","num_nodes":"7","size_leaf_vector":"0"}},{"base_weights":[1.4263617E-1,2.6069734E-1,-1.7612277E-1,1.090625E-1,4.2923996E-1,-3.869163E-3,-3.4097824E-1],"categories":[],"categories_nodes":[],"categories_segments":[],"categories_sizes":[],"default_left":[1,1,1,0,0,0,0],"id":15,"left_children":[1,3,5,-1,-1,-1,-1],"loss_changes":[2.3453815E2,1.1616913E2,4.7838444E1,0E0,0E0,0E0,0E0],"parents":[2147483647,0,0,1,1,2,2],"right_children":[2,4,6,-1,-1,-1,-1],"split_conditions":[2.15E1,1.35E1,-5E-2,1.090625E-3,4.2923996E-3,-3.869163E-5,-3.4097822E-3],"split_indices":[29,80,77,0,0,0,0],"split_type":[0,0,0,0,0,0,0],"sum_hessian":[6.2300166E3,4.546337E3,1.6836794E3,2.394076E3,2.1522612E3,8.2386536E2,8.598141E2],"tree_param":{"num_deleted":"0","num_feature":"106","num_nodes":"7","size_leaf_vector":"0"}},{"base_weights":[-1.4122513E-1,1.3384537E-1,-2.7585265E-1,-9.5049776E-2,2.6921752E-1,-5.1534337E-1,-1.7512645E-1],"categories":[],"categories_nodes":[],"categories_segments":[],"categories_sizes":[],"default_left":[1,1,1,0,0,0,0],"id":16,"left_children":[1,3,5,-1,-1,-1,-1],"loss_changes":[2.3076E2,6.348438E1,1.0082529E2,0E0,0E0,0E0,0E0],"parents":[2147483647,0,0,1,1,2,2],"right_children":[2,4,6,-1,-1,-1,-1],"split_conditions":[-1.6500001E0,-1.3499999E0,-1.95E0,-9.5049775E-4,2.692175E-3,-5.1534334E-3,-1.7512644E-3],"split_indices":[25,77,77,0,0,0,0],"split_type":[0,0,0,0,0,0,0],"sum_hessian":[6.2293594E3,2.0469808E3,4.1823784E3,7.6082733E2,1.2861534E3,1.2370358E3,2.9453428E3],"tree_param":{"num_deleted":"0","num_feature":"106","num_nodes":"7","size_leaf_vector":"0"}},{"base_weights":[1.4122514E-1,-1.3384536E-1,2.7585265E-1,9.504978E-2,-2.6921752E-1,5.1534337E-1,1.7512646E-1],"categories":[],"categories_nodes":[],"categories_segments":[],"categories_sizes":[],"default_left":[1,1,1,0,0,0,0],"id":17,"left_children":[1,3,5,-1,-1,-1,-1],"loss_changes":[2.3076E2,6.3484375E1,1.0082529E2,0E0,0E0,0E0,0E0],"parents":[2147483647,0,0,1,1,2,2],"right_children":[2,4,6,-1,-1,-1,-1],"split_conditions":[-1.6500001E0,-1.3499999E0,-1.95E0,9.504978E-4,-2.692175E-3,5.1534334E-3,1.7512646E-3],"split_indices":[25,77,77,0,0,0,0],"split_type":[0,0,0,0,0,0,0],"sum_hessian":[6.2293594E3,2.0469808E3,4.1823784E3,7.6082733E2,1.2861536E3,1.2370358E3,2.9453428E3],"tree_param":{"num_deleted":"0","num_feature":"106","num_nodes":"7","size_leaf_vector":"0"}},{"base_weights":[-1.3983065E-1,-3.350302E-1,4.736839E-2,-1.101993E-1,-4.3807667E-1,-2.1144591E-1,1.6805172E-1],"categories":[],"categories_nodes":[],"categories_segments":[],"categories_sizes":[],"default_left":[1,1,1,0,0,0,0],"id":18,"left_children":[1,3,5,-1,-1,-1,-1],"loss_changes":[2.276532E2,7.0608765E1,9.938802E1,0E0,0E0,0E0,0E0],"parents":[2147483647,0,0,1,1,2,2],"right_children":[2,4,6,-1,-1,-1,-1],"split_conditions":[1.45E1,8.5E0,-1.95E0,-1.101993E-3,-4.380767E-3,-2.1144592E-3,1.6805171E-3],"split_indices":[51,103,77,0,0,0,0],"split_type":[0,0,0,0,0,0,0],"sum_hessian":[6.2286133E3,3.048763E3,3.1798503E3,9.588267E2,2.0899363E3,1.01097906E3,2.1688713E3],"tree_param":{"num_deleted":"0","num_feature":"106","num_nodes":"7","size_leaf_vector":"0"}},{"base_weights":[1.3983063E-1,3.350302E-1,-4.7368415E-2,1.101993E-1,4.3807667E-1,2.1144587E-1,-1.6805173E-1],"categories":[],"categories_nodes":[],"categories_segments":[],"categories_sizes":[],"default_left":[1,1,1,0,0,0,0],"id":19,"left_children":[1,3,5,-1,-1,-1,-1],"loss_changes":[2.2765323E2,7.0608765E1,9.9388016E1,0E0,0E0,0E0,0E0],"parents":[2147483647,0,0,1,1,2,2],"right_children":[2,4,6,-1,-1,-1,-1],"split_conditions":[1.45E1,8.5E0,-1.95E0,1.101993E-3,4.380767E-3,2.1144587E-3,-1.6805173E-3],"split_indices":[51,103,77,0,0,0,0],"split_type":[0,0,0,0,0,0,0],"sum_hessian":[6.2286133E3,3.048763E3,3.1798503E3,9.588267E2,2.0899363E3,1.01097906E3,2.1688713E3],"tree_param":{"num_deleted":"0","num_feature":"106","num_nodes":"7","size_leaf_vector":"0"}},{"base_weights":[-1.384522E-1,1.1808147E-1,-2.7873537E-1,-3.5888985E-2,2.8728184E-1,-5.1047647E-1,-1.6732085E-1],"categories":[],"categories_nodes":[],"categories_segments":[],"categories_sizes":[],"default_left":[1,1,1,0,0,0,0],"id":20,"left_children":[1,3,5,-1,-1,-1,-1],"loss_changes":[2.2418994E2,5.739489E1,1.0389075E2,0E0,0E0,0E0,0E0],"parents":[2147483647,0,0,1,1,2,2],"right_children":[2,4,6,-1,-1,-1,-1],"split_conditions":[4.475E-1,5.135E-1,-1.45E0,-3.5888984E-4,2.8728184E-3,-5.1047644E-3,-1.6732084E-3],"split_indices":[3,55,77,0,0,0,0],"split_type":[0,0,0,0,0,0,0],"sum_hessian":[6.227773E3,2.2017056E3,4.0260674E3,1.1531447E3,1.0485609E3,1.306006E3,2.7200613E3],"tree_param":{"num_deleted":"0","num_feature":"106","num_nodes":"7","size_leaf_vector":"0"}},{"base_weights":[1.3845219E-1,-1.18081465E-1,2.7873534E-1,3.5889E-2,-2.8728184E-1,5.1047647E-1,1.6732082E-1],"categories":[],"categories_nodes":[],"categories_segments":[],"categories_sizes":[],"default_left":[1,1,1,0,0,0,0],"id":21,"left_children":[1,3,5,-1,-1,-1,-1],"loss_changes":[2.2418991E2,5.739489E1,1.0389075E2,0E0,0E0,0E0,0E0],"parents":[2147483647,0,0,1,1,2,2],"right_children":[2,4,6,-1,-1,-1,-1],"split_conditions":[4.475E-1,5.135E-1,-1.45E0,3.5888999E-4,-2.8728184E-3,5.1047644E-3,1.6732081E-3],"split_indices":[3,55,77,0,0,0,0],"split_type":[0,0,0,0,0,0,0],"sum_hessian":[6.227773E3,2.2017056E3,4.0260674E3,1.1531447E3,1.0485609E3,1.306006E3,2.7200615E3],"tree_param":{"num_deleted":"0","num_feature":"106","num_nodes":"7","size_leaf_vector":"0"}},{"base_weights":[-1.3708873E-1,-2.515942E-1,1.7195974E-1,-8.3735615E-2,-3.960529E-1,5.2107396E-3,3.3158785E-1],"categories":[],"categories_nodes":[],"categories_segments":[],"categories_sizes":[],"default_left":[1,1,1,0,0,0,0],"id":22,"left_children":[1,3,5,-1,-1,-1,-1],"loss_changes":[2.204331E2,1.1016705E2,4.482963E1,0E0,0E0,0E0,0E0],"parents":[2147483647,0,0,1,1,2,2],"right_children":[2,4,6,-1,-1,-1,-1],"split_conditions":[2.15E1,1.15E1,-5E-2,-8.3735614E-4,-3.960529E-3,5.2107396E-5,3.3158783E-3],"split_indices":[29,80,77,0,0,0,0],"split_type":[0,0,0,0,0,0,0],"sum_hessian":[6.2268574E3,4.543596E3,1.6832609E3,2.1023179E3,2.4412786E3,8.237728E2,8.594881E2],"tree_param":{"num_deleted":"0","num_feature":"106","num_nodes":"7","size_leaf_vector":"0"}},{"base_weights":[1.3708873E-1,2.5159422E-1,-1.7195973E-1,8.373562E-2,3.960529E-1,-5.2107247E-3,-3.3158785E-1],"categories":[],"categories_nodes":[],"categories_segments":[],"categories_sizes":[],"default_left":[1,1,1,0,0,0,0],"id":23,"left_children":[1,3,5,-1,-1,-1,-1],"loss_changes":[2.204331E2,1.1016708E2,4.4829636E1,0E0,0E0,0E0,0E0],"parents":[2147483647,0,0,1,1,2,2],"right_children":[2,4,6,-1,-1,-1,-1],"split_conditions":[2.15E1,1.15E1,-5E-2,8.373562E-4,3.960529E-3,-5.2107247E-5,-3.3158783E-3],"split_indices":[29,80,77,0,0,0,0],"split_type":[0,0,0,0,0,0,0],"sum_hessian":[6.2268574E3,4.543596E3,1.6832609E3,2.1023179E3,2.4412786E3,8.237728E2,8.594881E2],"tree_param":{"num_deleted":"0","num_feature":"106","num_nodes":"7","size_leaf_vector":"0"}},{"base_weights":[-1.3573913E-1,-3.2678384E-1,4.7400117E-2,-1.0665596E-1,-4.2775357E-1,-2.0574757E-1,1.6542016E-1],"categories":[],"categories_nodes":[],"categories_segments":[],"categories_sizes":[],"default_left":[1,1,1,0,0,0,0],"id":24,"left_children":[1,3,5,-1,-1,-1,-1],"loss_changes":[2.1788094E2,6.7695526E1,9.504437E1,0E0,0E0,0E0,0E0],"parents":[2147483647,0,0,1,1,2,2],"right_children":[2,4,6,-1,-1,-1,-1],"split_conditions":[1.45E1,8.5E0,-1.95E0,-1.0665596E-3,-4.2775357E-3,-2.0574757E-3,1.6542015E-3],"split_indices":[51,103,77,0,0,0,0],"split_type":[0,0,0,0,0,0,0],"sum_hessian":[6.225901E3,3.0467988E3,3.1791023E3,9.587181E2,2.0880806E3,1.0106214E3,2.1684807E3],"tree_param":{"num_deleted":"0","num_feature":"106","num_nodes":"7","size_leaf_vector":"0"}},{"base_weights":[1.3573912E-1,3.267838E-1,-4.740012E-2,1.0665596E-1,4.277535E-1,2.0574756E-1,-1.6542016E-1],"categories":[],"categories_nodes":[],"categories_segments":[],"categories_sizes":[],"default_left":[1,1,1,0,0,0,0],"id":25,"left_children":[1,3,5,-1,-1,-1,-1],"loss_changes":[2.1788092E2,6.7695496E1,9.504436E1,0E0,0E0,0E0,0E0],"parents":[2147483647,0,0,1,1,2,2],"right_children":[2,4,6,-1,-1,-1,-1],"split_conditions":[1.45E1,8.5E0,-1.95E0,1.0665596E-3,4.277535E-3,2.0574755E-3,-1.6542015E-3],"split_indices":[51,103,77,0,0,0,0],"split_type":[0,0,0,0,0,0,0],"sum_hessian":[6.225901E3,3.0467988E3,3.1791023E3,9.587181E2,2.0880808E3,1.0106214E3,2.1684807E3],"tree_param":{"num_deleted":"0","num_feature":"106","num_nodes":"7","size_leaf_vector":"0"}},{"base_weights":[-1.3440582E-1,9.5892005E-2,-2.8352216E-1,-1.5860997E-1,1.9825305E-1,-8.519177E-2,-4.028565E-1],"categories":[],"categories_nodes":[],"categories_segments":[],"categories_sizes":[],"default_left":[1,1,1,0,0,0,0],"id":26,"left_children":[1,3,5,-1,-1,-1,-1],"loss_changes":[2.1382986E2,6.379437E1,8.941113E1,0E0,0E0,0E0,0E0],"parents":[2147483647,0,0,1,1,2,2],"right_children":[2,4,6,-1,-1,-1,-1],"split_conditions":[4.6850002E-1,-2.45E0,1.05E1,-1.5860996E-3,1.9825303E-3,-8.519177E-4,-4.028565E-3],"split_indices":[3,77,103,0,0,0,0],"split_type":[0,0,0,0,0,0,0],"sum_hessian":[6.2248413E3,2.4466108E3,3.7782305E3,7.016176E2,1.7449932E3,1.4199786E3,2.3582517E3],"tree_param":{"num_deleted":"0","num_feature":"106","num_nodes":"7","size_leaf_vector":"0"}},{"base_weights":[1.3440582E-1,-9.589206E-2,2.835222E-1,1.5860993E-1,-1.9825311E-1,8.519179E-2,4.0285653E-1],"categories":[],"categories_nodes":[],"categories_segments":[],"categories_sizes":[],"default_left":[1,1,1,0,0,0,0],"id":27,"left_children":[1,3,5,-1,-1,-1,-1],"loss_changes":[2.1382993E2,6.3794365E1,8.941113E1,0E0,0E0,0E0,0E0],"parents":[2147483647,0,0,1,1,2,2],"right_children":[2,4,6,-1,-1,-1,-1],"split_conditions":[4.6850002E-1,-2.45E0,1.05E1,1.5860993E-3,-1.982531E-3,8.5191784E-4,4.0285653E-3],"split_indices":[3,77,103,0,0,0,0],"split_type":[0,0,0,0,0,0,0],"sum_hessian":[6.2248413E3,2.4466106E3,3.7782305E3,7.016176E2,1.7449932E3,1.4199788E3,2.3582517E3],"tree_param":{"num_deleted":"0","num_feature":"106","num_nodes":"7","size_leaf_vector":"0"}},{"base_weights":[-1.3308786E-1,-3.210373E-1,4.7016967E-2,-3.9414525E-1,-2.6486661E-2,-1.8339874E-1,1.7237389E-1],"categories":[],"categories_nodes":[],"categories_segments":[],"categories_sizes":[],"default_left":[1,1,1,0,0,0,0],"id":28,"left_children":[1,3,5,-1,-1,-1,-1],"loss_changes":[2.1072388E2,6.558481E1,9.1870155E1,0E0,0E0,0E0,0E0],"parents":[2147483647,0,0,1,1,2,2],"right_children":[2,4,6,-1,-1,-1,-1],"split_conditions":[1.45E1,4.8500004E0,-1.45E0,-3.9414526E-3,-2.648666E-4,-1.8339873E-3,1.7237389E-3],"split_indices":[51,77,77,0,0,0,0],"split_type":[0,0,0,0,0,0,0],"sum_hessian":[6.223668E3,3.0451262E3,3.178542E3,2.4393398E3,6.057862E2,1.1198E3,2.058742E3],"tree_param":{"num_deleted":"0","num_feature":"106","num_nodes":"7","size_leaf_vector":"0"}},{"base_weights":[1.3308784E-1,3.210373E-1,-4.701697E-2,3.9414525E-1,2.648658E-2,1.8339874E-1,-1.7237389E-1],"categories":[],"categories_nodes":[],"categories_segments":[],"categories_sizes":[],"default_left":[1,1,1,0,0,0,0],"id":29,"left_children":[1,3,5,-1,-1,-1,-1],"loss_changes":[2.1072388E2,6.558484E1,9.1870155E1,0E0,0E0,0E0,0E0],"parents":[2147483647,0,0,1,1,2,2],"right_children":[2,4,6,-1,-1,-1,-1],"split_conditions":[1.45E1,4.8500004E0,-1.45E0,3.9414526E-3,2.6486578E-4,1.8339873E-3,-1.7237389E-3],"split_indices":[51,77,77,0,0,0,0],"split_type":[0,0,0,0,0,0,0],"sum_hessian":[6.2236685E3,3.0451262E3,3.178542E3,2.43934E3,6.057862E2,1.1198E3,2.058742E3],"tree_param":{"num_deleted":"0","num_feature":"106","num_nodes":"7","size_leaf_vector":"0"}},{"base_weights":[-1.3178277E-1,-2.431129E-1,1.6854812E-1,-7.976309E-2,-3.8383734E-1,6.9482103E-3,3.2329088E-1],"categories":[],"categories_nodes":[],"categories_segments":[],"categories_sizes":[],"default_left":[1,1,1,0,0,0,0],"id":30,"left_children":[1,3,5,-1,-1,-1,-1],"loss_changes":[2.08129E2,1.04350525E2,4.2100582E1,0E0,0E0,0E0,0E0],"parents":[2147483647,0,0,1,1,2,2],"right_children":[2,4,6,-1,-1,-1,-1],"split_conditions":[2.15E1,1.15E1,-5E-2,-7.976309E-4,-3.8383733E-3,6.94821E-5,3.2329087E-3],"split_indices":[29,80,77,0,0,0,0],"split_type":[0,0,0,0,0,0,0],"sum_hessian":[6.2224956E3,4.539815E3,1.6826809E3,2.1017346E3,2.4380803E3,8.236144E2,8.5906647E2],"tree_param":{"num_deleted":"0","num_feature":"106","num_nodes":"7","size_leaf_vector":"0"}},{"base_weights":[1.3178279E-1,2.4311292E-1,-1.6854809E-1,7.9763114E-2,3.838373E-1,-6.9482033E-3,-3.2329082E-1],"categories":[],"categories_nodes":[],"categories_segments":[],"categories_sizes":[],"default_left":[1,1,1,0,0,0,0],"id":31,"left_children":[1,3,5,-1,-1,-1,-1],"loss_changes":[2.0812901E2,1.04350464E2,4.210056E1,0E0,0E0,0E0,0E0],"parents":[2147483647,0,0,1,1,2,2],"right_children":[2,4,6,-1,-1,-1,-1],"split_conditions":[2.15E1,1.15E1,-5E-2,7.976311E-4,3.838373E-3,-6.9482034E-5,-3.2329082E-3],"split_indices":[29,80,77,0,0,0,0],"split_type":[0,0,0,0,0,0,0],"sum_hessian":[6.2224956E3,4.539815E3,1.6826809E3,2.1017344E3,2.4380806E3,8.236144E2,8.5906647E2],"tree_param":{"num_deleted":"0","num_feature":"106","num_nodes":"7","size_leaf_vector":"0"}},{"base_weights":[-1.3049105E-1,1.2866093E-1,-2.574533E-1,-8.532358E-2,2.5524414E-1,-4.8548734E-1,-1.6176194E-1],"categories":[],"categories_nodes":[],"categories_segments":[],"categories_sizes":[],"default_left":[1,1,1,0,0,0,0],"id":32,"left_children":[1,3,5,-1,-1,-1,-1],"loss_changes":[2.047616E2,5.545982E1,9.10585E1,0E0,0E0,0E0,0E0],"parents":[2147483647,0,0,1,1,2,2],"right_children":[2,4,6,-1,-1,-1,-1],"split_conditions":[-1.6500001E0,-1.3499999E0,-1.95E0,-8.532358E-4,2.5524413E-3,-4.8548733E-3,-1.6176193E-3],"split_indices":[25,77,77,0,0,0,0],"split_type":[0,0,0,0,0,0,0],"sum_hessian":[6.2212744E3,2.0456777E3,4.1755967E3,7.604646E2,1.2852131E3,1.233078E3,2.9425186E3],"tree_param":{"num_deleted":"0","num_feature":"106","num_nodes":"7","size_leaf_vector":"0"}},{"base_weights":[1.3049102E-1,-1.2866093E-1,2.5745326E-1,8.532358E-2,-2.5524414E-1,4.854873E-1,1.6176191E-1],"categories":[],"categories_nodes":[],"categories_segments":[],"categories_sizes":[],"default_left":[1,1,1,0,0,0,0],"id":33,"left_children":[1,3,5,-1,-1,-1,-1],"loss_changes":[2.0476157E2,5.5459824E1,9.105847E1,0E0,0E0,0E0,0E0],"parents":[2147483647,0,0,1,1,2,2],"right_children":[2,4,6,-1,-1,-1,-1],"split_conditions":[-1.6500001E0,-1.3499999E0,-1.95E0,8.532358E-4,-2.5524413E-3,4.854873E-3,1.6176191E-3],"split_indices":[25,77,77,0,0,0,0],"split_type":[0,0,0,0,0,0,0],"sum_hessian":[6.221274E3,2.0456777E3,4.175596E3,7.604646E2,1.2852131E3,1.233078E3,2.9425186E3],"tree_param":{"num_deleted":"0","num_feature":"106","num_nodes":"7","size_leaf_vector":"0"}},{"base_weights":[-1.292143E-1,-3.1319484E-1,4.6989378E-2,-3.8509068E-1,-2.3809271E-2,-1.9606471E-1,1.6026263E-1],"categories":[],"categories_nodes":[],"categories_segments":[],"categories_sizes":[],"default_left":[1,1,1,0,0,0,0],"id":34,"left_children":[1,3,5,-1,-1,-1,-1],"loss_changes":[2.0168636E2,6.331183E1,8.7540764E1,0E0,0E0,0E0,0E0],"parents":[2147483647,0,0,1,1,2,2],"right_children":[2,4,6,-1,-1,-1,-1],"split_conditions":[1.45E1,4.8500004E0,-1.95E0,-3.8509066E-3,-2.380927E-4,-1.960647E-3,1.6026263E-3],"split_indices":[51,77,77,0,0,0,0],"split_type":[0,0,0,0,0,0,0],"sum_hessian":[6.219969E3,3.0424556E3,3.1775137E3,2.4367349E3,6.057206E2,1.0098707E3,2.167643E3],"tree_param":{"num_deleted":"0","num_feature":"106","num_nodes":"7","size_leaf_vector":"0"}},{"base_weights":[1.292143E-1,3.1319484E-1,-4.6989366E-2,3.8509068E-1,2.3809271E-2,1.9606468E-1,-1.6026261E-1],"categories":[],"categories_nodes":[],"categories_segments":[],"categories_sizes":[],"default_left":[1,1,1,0,0,0,0],"id":35,"left_children":[1,3,5,-1,-1,-1,-1],"loss_changes":[2.0168639E2,6.33118E1,8.754074E1,0E0,0E0,0E0,0E0],"parents":[2147483647,0,0,1,1,2,2],"right_children":[2,4,6,-1,-1,-1,-1],"split_conditions":[1.45E1,4.8500004E0,-1.95E0,3.8509066E-3,2.380927E-4,1.9606468E-3,-1.602626E-3],"split_indices":[51,77,77,0,0,0,0],"split_type":[0,0,0,0,0,0,0],"sum_hessian":[6.219969E3,3.0424556E3,3.177514E3,2.4367349E3,6.057206E2,1.0098707E3,2.167643E3],"tree_param":{"num_deleted":"0","num_feature":"106","num_nodes":"7","size_leaf_vector":"0"}},{"base_weights":[-1.2795135E-1,-2.4479173E-1,1.4594534E-1,-1.0221814E-1,-4.0681794E-1,-9.776068E-2,2.4401478E-1],"categories":[],"categories_nodes":[],"categories_segments":[],"categories_sizes":[],"default_left":[1,1,1,0,0,0,0],"id":36,"left_children":[1,3,5,-1,-1,-1,-1],"loss_changes":[1.9907661E2,1.0068088E2,4.448874E1,0E0,0E0,0E0,0E0],"parents":[2147483647,0,0,1,1,2,2],"right_children":[2,4,6,-1,-1,-1,-1],"split_conditions":[1.95E1,1.35E1,-2.45E0,-1.0221814E-3,-4.0681795E-3,-9.776067E-4,2.4401478E-3],"split_indices":[28,80,77,0,0,0,0],"split_type":[0,0,0,0,0,0,0],"sum_hessian":[6.2186016E3,4.3591553E3,1.8594464E3,2.3196394E3,2.0395157E3,5.335526E2,1.3258938E3],"tree_param":{"num_deleted":"0","num_feature":"106","num_nodes":"7","size_leaf_vector":"0"}},{"base_weights":[1.2795135E-1,2.4479173E-1,-1.4594533E-1,1.02218136E-1,4.0681797E-1,9.7760744E-2,-2.4401478E-1],"categories":[],"categories_nodes":[],"categories_segments":[],"categories_sizes":[],"default_left":[1,1,1,0,0,0,0],"id":37,"left_children":[1,3,5,-1,-1,-1,-1],"loss_changes":[1.990766E2,1.0068091E2,4.4488747E1,0E0,0E0,0E0,0E0],"parents":[2147483647,0,0,1,1,2,2],"right_children":[2,4,6,-1,-1,-1,-1],"split_conditions":[1.95E1,1.35E1,-2.45E0,1.0221814E-3,4.0681795E-3,9.776074E-4,-2.4401478E-3],"split_indices":[28,80,77,0,0,0,0],"split_type":[0,0,0,0,0,0,0],"sum_hessian":[6.2186016E3,4.3591553E3,1.8594464E3,2.3196394E3,2.0395157E3,5.335526E2,1.3258938E3],"tree_param":{"num_deleted":"0","num_feature":"106","num_nodes":"7","size_leaf_vector":"0"}},{"base_weights":[-1.2670216E-1,-3.0790034E-1,4.675777E-2,-3.788453E-1,-2.2567255E-2,-1.7442094E-1,1.6704708E-1],"categories":[],"categories_nodes":[],"categories_segments":[],"categories_sizes":[],"default_left":[1,1,1,0,0,0,0],"id":38,"left_children":[1,3,5,-1,-1,-1,-1],"loss_changes":[1.9545493E2,6.15578E1,8.457545E1,0E0,0E0,0E0,0E0],"parents":[2147483647,0,0,1,1,2,2],"right_children":[2,4,6,-1,-1,-1,-1],"split_conditions":[1.45E1,4.8500004E0,-1.45E0,-3.788453E-3,-2.2567254E-4,-1.7442093E-3,1.6704708E-3],"split_indices":[51,77,77,0,0,0,0],"split_type":[0,0,0,0,0,0,0],"sum_hessian":[6.217157E3,3.040374E3,3.1767832E3,2.4346877E3,6.0568634E2,1.1189304E3,2.0578528E3],"tree_param":{"num_deleted":"0","num_feature":"106","num_nodes":"7","size_leaf_vector":"0"}},{"base_weights":[1.2670217E-1,3.0790034E-1,-4.675776E-2,3.788453E-1,2.256726E-2,1.7442098E-1,-1.670471E-1],"categories":[],"categories_nodes":[],"categories_segments":[],"categories_sizes":[],"default_left":[1,1,1,0,0,0,0],"id":39,"left_children":[1,3,5,-1,-1,-1,-1],"loss_changes":[1.9545493E2,6.15578E1,8.457547E1,0E0,0E0,0E0,0E0],"parents":[2147483647,0,0,1,1,2,2],"right_children":[2,4,6,-1,-1,-1,-1],"split_conditions":[1.45E1,4.8500004E0,-1.45E0,3.788453E-3,2.2567259E-4,1.7442098E-3,-1.6704709E-3],"split_indices":[51,77,77,0,0,0,0],"split_type":[0,0,0,0,0,0,0],"sum_hessian":[6.217157E3,3.040374E3,3.1767832E3,2.4346877E3,6.0568634E2,1.1189304E3,2.0578528E3],"tree_param":{"num_deleted":"0","num_feature":"106","num_nodes":"7","size_leaf_vector":"0"}},{"base_weights":[-1.2546624E-1,-2.3283924E-1,1.6398229E-1,-7.481777E-2,-3.692003E-1,8.550483E-3,3.128951E-1],"categories":[],"categories_nodes":[],"categories_segments":[],"categories_sizes":[],"default_left":[1,1,1,0,0,0,0],"id":40,"left_children":[1,3,5,-1,-1,-1,-1],"loss_changes":[1.932457E2,9.769153E1,3.8944946E1,0E0,0E0,0E0,0E0],"parents":[2147483647,0,0,1,1,2,2],"right_children":[2,4,6,-1,-1,-1,-1],"split_conditions":[2.15E1,1.15E1,-5E-2,-7.481777E-4,-3.6920027E-3,8.550483E-5,3.1289507E-3],"split_indices":[29,80,77,0,0,0,0],"split_type":[0,0,0,0,0,0,0],"sum_hessian":[6.215667E3,4.5339585E3,1.6817087E3,2.100894E3,2.4330642E3,8.233608E2,8.583479E2],"tree_param":{"num_deleted":"0","num_feature":"106","num_nodes":"7","size_leaf_vector":"0"}},{"base_weights":[1.2546626E-1,2.3283926E-1,-1.6398227E-1,7.4817754E-2,3.6920032E-1,-8.550448E-3,-3.128951E-1],"categories":[],"categories_nodes":[],"categories_segments":[],"categories_sizes":[],"default_left":[1,1,1,0,0,0,0],"id":41,"left_children":[1,3,5,-1,-1,-1,-1],"loss_changes":[1.932457E2,9.7691635E1,3.8944946E1,0E0,0E0,0E0,0E0],"parents":[2147483647,0,0,1,1,2,2],"right_children":[2,4,6,-1,-1,-1,-1],"split_conditions":[2.15E1,1.15E1,-5E-2,7.481775E-4,3.6920032E-3,-8.550448E-5,-3.1289507E-3],"split_indices":[29,80,77,0,0,0,0],"split_type":[0,0,0,0,0,0,0],"sum_hessian":[6.215667E3,4.5339585E3,1.6817086E3,2.1008943E3,2.4330642E3,8.233608E2,8.583479E2],"tree_param":{"num_deleted":"0","num_feature":"106","num_nodes":"7","size_leaf_vector":"0"}},{"base_weights":[-1.24242425E-1,1.2535614E-1,-2.4662729E-1,-7.939367E-2,2.4650733E-1,-4.682982E-1,-1.5379144E-1],"categories":[],"categories_nodes":[],"categories_segments":[],"categories_sizes":[],"default_left":[1,1,1,0,0,0,0],"id":42,"left_children":[1,3,5,-1,-1,-1,-1],"loss_changes":[1.8988557E2,5.0759235E1,8.575606E1,0E0,0E0,0E0,0E0],"parents":[2147483647,0,0,1,1,2,2],"right_children":[2,4,6,-1,-1,-1,-1],"split_conditions":[-1.6500001E0,-1.3499999E0,-1.95E0,-7.9393666E-4,2.4650733E-3,-4.682982E-3,-1.5379144E-3],"split_indices":[25,77,77,0,0,0,0],"split_type":[0,0,0,0,0,0,0],"sum_hessian":[6.2141484E3,2.0444854E3,4.169663E3,7.6014984E2,1.2843356E3,1.2296039E3,2.940059E3],"tree_param":{"num_deleted":"0","num_feature":"106","num_nodes":"7","size_leaf_vector":"0"}},{"base_weights":[1.24242425E-1,-1.2535617E-1,2.4662729E-1,7.9393625E-2,-2.4650735E-1,4.682982E-1,1.5379146E-1],"categories":[],"categories_nodes":[],"categories_segments":[],"categories_sizes":[],"default_left":[1,1,1,0,0,0,0],"id":43,"left_children":[1,3,5,-1,-1,-1,-1],"loss_changes":[1.8988564E2,5.0759228E1,8.575606E1,0E0,0E0,0E0,0E0],"parents":[2147483647,0,0,1,1,2,2],"right_children":[2,4,6,-1,-1,-1,-1],"split_conditions":[-1.6500001E0,-1.3499999E0,-1.95E0,7.9393625E-4,-2.4650735E-3,4.682982E-3,1.5379145E-3],"split_indices":[25,77,77,0,0,0,0],"split_type":[0,0,0,0,0,0,0],"sum_hessian":[6.2141484E3,2.0444855E3,4.169663E3,7.601499E2,1.2843356E3,1.2296038E3,2.940059E3],"tree_param":{"num_deleted":"0","num_feature":"106","num_nodes":"7","size_leaf_vector":"0"}},{"base_weights":[-1.23032734E-1,-3.004513E-1,4.669245E-2,-2.3165102E-1,-5.857858E-1,-1.8672994E-1,1.5542571E-1],"categories":[],"categories_nodes":[],"categories_segments":[],"categories_sizes":[],"default_left":[1,1,1,0,0,0,0],"id":44,"left_children":[1,3,5,-1,-1,-1,-1],"loss_changes":[1.8711893E2,5.950473E1,8.065088E1,0E0,0E0,0E0,0E0],"parents":[2147483647,0,0,1,1,2,2],"right_children":[2,4,6,-1,-1,-1,-1],"split_conditions":[1.45E1,2.25E1,-1.95E0,-2.31651E-3,-5.857858E-3,-1.8672993E-3,1.5542571E-3],"split_indices":[51,80,77,0,0,0,0],"split_type":[0,0,0,0,0,0,0],"sum_hessian":[6.2125503E3,3.0370574E3,3.175493E3,2.4484863E3,5.8857086E2,1.0089084E3,2.1665845E3],"tree_param":{"num_deleted":"0","num_feature":"106","num_nodes":"7","size_leaf_vector":"0"}},{"base_weights":[1.2303275E-1,3.004513E-1,-4.6692435E-2,2.3165104E-1,5.857858E-1,1.8672997E-1,-1.554257E-1],"categories":[],"categories_nodes":[],"categories_segments":[],"categories_sizes":[],"default_left":[1,1,1,0,0,0,0],"id":45,"left_children":[1,3,5,-1,-1,-1,-1],"loss_changes":[1.8711891E2,5.95047E1,8.065089E1,0E0,0E0,0E0,0E0],"parents":[2147483647,0,0,1,1,2,2],"right_children":[2,4,6,-1,-1,-1,-1],"split_conditions":[1.45E1,2.25E1,-1.95E0,2.3165103E-3,5.857858E-3,1.8672997E-3,-1.5542569E-3],"split_indices":[51,80,77,0,0,0,0],"split_type":[0,0,0,0,0,0,0],"sum_hessian":[6.2125503E3,3.0370574E3,3.175493E3,2.4484863E3,5.8857086E2,1.0089084E3,2.1665845E3],"tree_param":{"num_deleted":"0","num_feature":"106","num_nodes":"7","size_leaf_vector":"0"}},{"base_weights":[-1.2183627E-1,-2.3451982E-1,1.4209566E-1,-9.664476E-2,-3.915329E-1,-9.116711E-2,2.3598595E-1],"categories":[],"categories_nodes":[],"categories_segments":[],"categories_sizes":[],"default_left":[1,1,1,0,0,0,0],"id":46,"left_children":[1,3,5,-1,-1,-1,-1],"loss_changes":[1.8478055E2,9.421153E1,4.0740726E1,0E0,0E0,0E0,0E0],"parents":[2147483647,0,0,1,1,2,2],"right_children":[2,4,6,-1,-1,-1,-1],"split_conditions":[1.95E1,1.35E1,-2.45E0,-9.664476E-4,-3.915329E-3,-9.11671E-4,2.3598594E-3],"split_indices":[28,80,77,0,0,0,0],"split_type":[0,0,0,0,0,0,0],"sum_hessian":[6.210915E3,4.352684E3,1.8582311E3,2.318445E3,2.0342389E3,5.3330566E2,1.3249254E3],"tree_param":{"num_deleted":"0","num_feature":"106","num_nodes":"7","size_leaf_vector":"0"}},{"base_weights":[1.2183626E-1,2.345198E-1,-1.4209563E-1,9.6644774E-2,3.915328E-1,9.116709E-2,-2.3598589E-1],"categories":[],"categories_nodes":[],"categories_segments":[],"categories_sizes":[],"default_left":[1,1,1,0,0,0,0],"id":47,"left_children":[1,3,5,-1,-1,-1,-1],"loss_changes":[1.8478052E2,9.421147E1,4.074072E1,0E0,0E0,0E0,0E0],"parents":[2147483647,0,0,1,1,2,2],"right_children":[2,4,6,-1,-1,-1,-1],"split_conditions":[1.95E1,1.35E1,-2.45E0,9.664477E-4,3.915328E-3,9.116709E-4,-2.359859E-3],"split_indices":[28,80,77,0,0,0,0],"split_type":[0,0,0,0,0,0,0],"sum_hessian":[6.210915E3,4.352684E3,1.858231E3,2.318445E3,2.0342389E3,5.333056E2,1.3249253E3],"tree_param":{"num_deleted":"0","num_feature":"106","num_nodes":"7","size_leaf_vector":"0"}},{"base_weights":[-1.2065232E-1,-2.2478873E-1,1.5989076E-1,-7.107885E-2,-3.576546E-1,9.190981E-3,3.0435485E-1],"categories":[],"categories_nodes":[],"categories_segments":[],"categories_sizes":[],"default_left":[1,1,1,0,0,0,0],"id":48,"left_children":[1,3,5,-1,-1,-1,-1],"loss_changes":[1.8146513E2,9.247861E1,3.6609924E1,0E0,0E0,0E0,0E0],"parents":[2147483647,0,0,1,1,2,2],"right_children":[2,4,6,-1,-1,-1,-1],"split_conditions":[2.15E1,1.15E1,-5E-2,-7.107885E-4,-3.576546E-3,9.190981E-5,3.0435484E-3],"split_indices":[29,80,77,0,0,0,0],"split_type":[0,0,0,0,0,0,0],"sum_hessian":[6.209191E3,4.528448E3,1.6807423E3,2.1002483E3,2.4282002E3,8.231379E2,8.5760443E2],"tree_param":{"num_deleted":"0","num_feature":"106","num_nodes":"7","size_leaf_vector":"0"}},{"base_weights":[1.20652325E-1,2.2478874E-1,-1.5989074E-1,7.107884E-2,3.5765463E-1,-9.190962E-3,-3.0435485E-1],"categories":[],"categories_nodes":[],"categories_segments":[],"categories_sizes":[],"default_left":[1,1,1,0,0,0,0],"id":49,"left_children":[1,3,5,-1,-1,-1,-1],"loss_changes":[1.8146512E2,9.247859E1,3.6609924E1,0E0,0E0,0E0,0E0],"parents":[2147483647,0,0,1,1,2,2],"right_children":[2,4,6,-1,-1,-1,-1],"split_conditions":[2.15E1,1.15E1,-5E-2,7.1078836E-4,3.5765462E-3,-9.190961E-5,-3.0435484E-3],"split_indices":[29,80,77,0,0,0,0],"split_type":[0,0,0,0,0,0,0],"sum_hessian":[6.209191E3,4.528448E3,1.6807423E3,2.100248E3,2.4282002E3,8.231379E2,8.5760443E2],"tree_param":{"num_deleted":"0","num_feature":"106","num_nodes":"7","size_leaf_vector":"0"}},{"base_weights":[-1.194797E-1,-2.9335994E-1,4.6737365E-2,-3.6039615E-1,-7.238066E-3,-1.8143478E-1,1.5299216E-1],"categories":[],"categories_nodes":[],"categories_segments":[],"categories_sizes":[],"default_left":[1,1,1,0,0,0,0],"id":50,"left_children":[1,3,5,-1,-1,-1,-1],"loss_changes":[1.7944966E2,5.819919E1,7.7004555E1,0E0,0E0,0E0,0E0],"parents":[2147483647,0,0,1,1,2,2],"right_children":[2,4,6,-1,-1,-1,-1],"split_conditions":[1.45E1,5.05E0,-1.95E0,-3.6039613E-3,-7.238066E-5,-1.8143478E-3,1.5299215E-3],"split_indices":[51,77,77,0,0,0,0],"split_type":[0,0,0,0,0,0,0],"sum_hessian":[6.2074556E3,3.03342E3,3.1740356E3,2.457408E3,5.7601196E2,1.0082362E3,2.1657996E3],"tree_param":{"num_deleted":"0","num_feature":"106","num_nodes":"7","size_leaf_vector":"0"}},{"base_weights":[1.1947972E-1,2.9335994E-1,-4.673734E-2,3.6039618E-1,7.2379815E-3,1.8143483E-1,-1.5299214E-1],"categories":[],"categories_nodes":[],"categories_segments":[],"categories_sizes":[],"default_left":[1,1,1,0,0,0,0],"id":51,"left_children":[1,3,5,-1,-1,-1,-1],"loss_changes":[1.7944965E2,5.819922E1,7.700456E1,0E0,0E0,0E0,0E0],"parents":[2147483647,0,0,1,1,2,2],"right_children":[2,4,6,-1,-1,-1,-1],"split_conditions":[1.45E1,5.05E0,-1.95E0,3.6039618E-3,7.2379815E-5,1.8143482E-3,-1.5299214E-3],"split_indices":[51,77,77,0,0,0,0],"split_type":[0,0,0,0,0,0,0],"sum_hessian":[6.207456E3,3.0334202E3,3.1740356E3,2.457408E3,5.7601196E2,1.0082362E3,2.1657996E3],"tree_param":{"num_deleted":"0","num_feature":"106","num_nodes":"7","size_leaf_vector":"0"}},{"base_weights":[-1.1832022E-1,1.5200984E-1,-2.234661E-1,-4.0768236E-2,2.5852376E-1,-8.5161E-3,-3.1729296E-1],"categories":[],"categories_nodes":[],"categories_segments":[],"categories_sizes":[],"default_left":[1,1,1,0,0,0,0],"id":52,"left_children":[1,3,5,-1,-1,-1,-1],"loss_changes":[1.764526E2,3.5711567E1,9.012831E1,0E0,0E0,0E0,0E0],"parents":[2147483647,0,0,1,1,2,2],"right_children":[2,4,6,-1,-1,-1,-1],"split_conditions":[-2.45E0,-1.45E0,8.5E0,-4.0768235E-4,2.5852376E-3,-8.5161E-5,-3.1729294E-3],"split_indices":[25,77,103,0,0,0,0],"split_type":[0,0,0,0,0,0,0],"sum_hessian":[6.2056587E3,1.7376681E3,4.4679907E3,6.186319E2,1.1190361E3,1.358003E3,3.1099875E3],"tree_param":{"num_deleted":"0","num_feature":"106","num_nodes":"7","size_leaf_vector":"0"}},{"base_weights":[1.1832023E-1,-1.5200986E-1,2.2346611E-1,4.0768236E-2,-2.5852376E-1,8.51613E-3,3.1729296E-1],"categories":[],"categories_nodes":[],"categories_segments":[],"categories_sizes":[],"default_left":[1,1,1,0,0,0,0],"id":53,"left_children":[1,3,5,-1,-1,-1,-1],"loss_changes":[1.7645262E2,3.5711575E1,9.012828E1,0E0,0E0,0E0,0E0],"parents":[2147483647,0,0,1,1,2,2],"right_children":[2,4,6,-1,-1,-1,-1],"split_conditions":[-2.45E0,-1.45E0,8.5E0,4.0768235E-4,-2.5852376E-3,8.51613E-5,3.1729294E-3],"split_indices":[25,77,103,0,0,0,0],"split_type":[0,0,0,0,0,0,0],"sum_hessian":[6.2056587E3,1.7376681E3,4.4679907E3,6.186319E2,1.1190361E3,1.358003E3,3.1099878E3],"tree_param":{"num_deleted":"0","num_feature":"106","num_nodes":"7","size_leaf_vector":"0"}},{"base_weights":[-1.1717079E-1,-2.8848588E-1,4.6497162E-2,-2.2121522E-1,-5.6822735E-1,-1.7805125E-1,1.5104422E-1],"categories":[],"categories_nodes":[],"categories_segments":[],"categories_sizes":[],"default_left":[1,1,1,0,0,0,0],"id":54,"left_children":[1,3,5,-1,-1,-1,-1],"loss_changes":[1.7399118E2,5.69272E1,7.4542435E1,0E0,0E0,0E0,0E0],"parents":[2147483647,0,0,1,1,2,2],"right_children":[2,4,6,-1,-1,-1,-1],"split_conditions":[1.45E1,2.25E1,-1.95E0,-2.2121521E-3,-5.6822733E-3,-1.7805124E-3,1.5104421E-3],"split_indices":[51,80,77,0,0,0,0],"split_type":[0,0,0,0,0,0,0],"sum_hessian":[6.203896E3,3.030763E3,3.173133E3,2.4446726E3,5.860902E2,1.0078176E3,2.1653154E3],"tree_param":{"num_deleted":"0","num_feature":"106","num_nodes":"7","size_leaf_vector":"0"}},{"base_weights":[1.1717078E-1,2.8848585E-1,-4.649718E-2,2.2121522E-1,5.6822735E-1,1.7805125E-1,-1.5104425E-1],"categories":[],"categories_nodes":[],"categories_segments":[],"categories_sizes":[],"default_left":[1,1,1,0,0,0,0],"id":55,"left_children":[1,3,5,-1,-1,-1,-1],"loss_changes":[1.739912E2,5.69272E1,7.4542465E1,0E0,0E0,0E0,0E0],"parents":[2147483647,0,0,1,1,2,2],"right_children":[2,4,6,-1,-1,-1,-1],"split_conditions":[1.45E1,2.25E1,-1.95E0,2.2121521E-3,5.6822733E-3,1.7805124E-3,-1.5104425E-3],"split_indices":[51,80,77,0,0,0,0],"split_type":[0,0,0,0,0,0,0],"sum_hessian":[6.203896E3,3.030763E3,3.173133E3,2.4446726E3,5.860902E2,1.0078176E3,2.1653154E3],"tree_param":{"num_deleted":"0","num_feature":"106","num_nodes":"7","size_leaf_vector":"0"}},{"base_weights":[-1.16035976E-1,-2.2475125E-1,1.383578E-1,-1.353898E-1,-4.5253292E-1,-1.4193328E-1,2.1155693E-1],"categories":[],"categories_nodes":[],"categories_segments":[],"categories_sizes":[],"default_left":[1,1,1,0,0,0,0],"id":56,"left_children":[1,3,5,-1,-1,-1,-1],"loss_changes":[1.7158484E2,8.840538E1,3.8146824E1,0E0,0E0,0E0,0E0],"parents":[2147483647,0,0,1,1,2,2],"right_children":[2,4,6,-1,-1,-1,-1],"split_conditions":[1.95E1,1.95E1,3.585E-1,-1.353898E-3,-4.525329E-3,-1.4193327E-3,2.1155693E-3],"split_indices":[28,80,55,0,0,0,0],"split_type":[0,0,0,0,0,0,0],"sum_hessian":[6.202019E3,4.345209E3,1.8568102E3,3.1220042E3,1.2232048E3,3.8430527E2,1.472505E3],"tree_param":{"num_deleted":"0","num_feature":"106","num_nodes":"7","size_leaf_vector":"0"}},{"base_weights":[1.1603597E-1,2.2475123E-1,-1.3835776E-1,1.3538979E-1,4.5253286E-1,1.419333E-1,-2.1155688E-1],"categories":[],"categories_nodes":[],"categories_segments":[],"categories_sizes":[],"default_left":[1,1,1,0,0,0,0],"id":57,"left_children":[1,3,5,-1,-1,-1,-1],"loss_changes":[1.7158478E2,8.8405365E1,3.8146828E1,0E0,0E0,0E0,0E0],"parents":[2147483647,0,0,1,1,2,2],"right_children":[2,4,6,-1,-1,-1,-1],"split_conditions":[1.95E1,1.95E1,3.585E-1,1.3538979E-3,4.5253285E-3,1.419333E-3,-2.1155688E-3],"split_indices":[28,80,55,0,0,0,0],"split_type":[0,0,0,0,0,0,0],"sum_hessian":[6.202019E3,4.345209E3,1.8568103E3,3.1220042E3,1.2232048E3,3.843053E2,1.472505E3],"tree_param":{"num_deleted":"0","num_feature":"106","num_nodes":"7","size_leaf_vector":"0"}},{"base_weights":[-1.1491124E-1,8.9719504E-2,-2.4783891E-1,-4.6199363E-2,2.374595E-1,-3.4535602E-1,-4.4886306E-2],"categories":[],"categories_nodes":[],"categories_segments":[],"categories_sizes":[],"default_left":[1,1,1,0,0,0,0],"id":58,"left_children":[1,3,5,-1,-1,-1,-1],"loss_changes":[1.6870065E2,4.906198E1,7.438933E1,0E0,0E0,0E0,0E0],"parents":[2147483647,0,0,1,1,2,2],"right_children":[2,4,6,-1,-1,-1,-1],"split_conditions":[4.6850002E-1,5.135E-1,2.85E0,-4.6199362E-4,2.3745948E-3,-3.4535602E-3,-4.4886305E-4],"split_indices":[3,55,77,0,0,0,0],"split_type":[0,0,0,0,0,0,0],"sum_hessian":[6.200164E3,2.4417004E3,3.7584634E3,1.2720856E3,1.1696149E3,2.5381846E3,1.220279E3],"tree_param":{"num_deleted":"0","num_feature":"106","num_nodes":"7","size_leaf_vector":"0"}},{"base_weights":[1.1491126E-1,-8.9719504E-2,2.4783893E-1,4.619936E-2,-2.374595E-1,3.4535608E-1,4.488626E-2],"categories":[],"categories_nodes":[],"categories_segments":[],"categories_sizes":[],"default_left":[1,1,1,0,0,0,0],"id":59,"left_children":[1,3,5,-1,-1,-1,-1],"loss_changes":[1.6870067E2,4.906198E1,7.438939E1,0E0,0E0,0E0,0E0],"parents":[2147483647,0,0,1,1,2,2],"right_children":[2,4,6,-1,-1,-1,-1],"split_conditions":[4.6850002E-1,5.135E-1,2.85E0,4.619936E-4,-2.3745948E-3,3.4535606E-3,4.4886261E-4],"split_indices":[3,55,77,0,0,0,0],"split_type":[0,0,0,0,0,0,0],"sum_hessian":[6.200164E3,2.4417004E3,3.7584634E3,1.2720856E3,1.1696149E3,2.5381846E3,1.220279E3],"tree_param":{"num_deleted":"0","num_feature":"106","num_nodes":"7","size_leaf_vector":"0"}},{"base_weights":[-1.13798834E-1,-2.81506E-1,4.6276778E-2,-3.4687594E-1,-3.191564E-3,-1.5722622E-1,1.5685278E-1],"categories":[],"categories_nodes":[],"categories_segments":[],"categories_sizes":[],"default_left":[1,1,1,0,0,0,0],"id":60,"left_children":[1,3,5,-1,-1,-1,-1],"loss_changes":[1.6643576E2,5.5080856E1,7.141684E1,0E0,0E0,0E0,0E0],"parents":[2147483647,0,0,1,1,2,2],"right_children":[2,4,6,-1,-1,-1,-1],"split_conditions":[1.45E1,5.05E0,-1.45E0,-3.4687594E-3,-3.191564E-5,-1.5722621E-3,1.5685278E-3],"split_indices":[51,77,77,0,0,0,0],"split_type":[0,0,0,0,0,0,0],"sum_hessian":[6.1982036E3,3.0265771E3,3.1716265E3,2.4507122E3,5.758649E2,1.116468E3,2.0551587E3],"tree_param":{"num_deleted":"0","num_feature":"106","num_nodes":"7","size_leaf_vector":"0"}},{"base_weights":[1.13798834E-1,2.81506E-1,-4.6276778E-2,3.4687594E-1,3.1915335E-3,1.572262E-1,-1.5685278E-1],"categories":[],"categories_nodes":[],"categories_segments":[],"categories_sizes":[],"default_left":[1,1,1,0,0,0,0],"id":61,"left_children":[1,3,5,-1,-1,-1,-1],"loss_changes":[1.6643576E2,5.5080856E1,7.141684E1,0E0,0E0,0E0,0E0],"parents":[2147483647,0,0,1,1,2,2],"right_children":[2,4,6,-1,-1,-1,-1],"split_conditions":[1.45E1,5.05E0,-1.45E0,3.4687594E-3,3.1915333E-5,1.572262E-3,-1.5685278E-3],"split_indices":[51,77,77,0,0,0,0],"split_type":[0,0,0,0,0,0,0],"sum_hessian":[6.1982036E3,3.0265771E3,3.1716267E3,2.4507122E3,5.758649E2,1.116468E3,2.0551587E3],"tree_param":{"num_deleted":"0","num_feature":"106","num_nodes":"7","size_leaf_vector":"0"}},{"base_weights":[-1.1269858E-1,-2.1194762E-1,1.543018E-1,-6.452367E-2,-3.3976826E-1,1.1071185E-2,2.917506E-1],"categories":[],"categories_nodes":[],"categories_segments":[],"categories_sizes":[],"default_left":[1,1,1,0,0,0,0],"id":62,"left_children":[1,3,5,-1,-1,-1,-1],"loss_changes":[1.642552E2,8.511911E1,3.306952E1,0E0,0E0,0E0,0E0],"parents":[2147483647,0,0,1,1,2,2],"right_children":[2,4,6,-1,-1,-1,-1],"split_conditions":[2.15E1,1.15E1,-5E-2,-6.4523664E-4,-3.3976824E-3,1.10711844E-4,2.917506E-3],"split_indices":[29,80,77,0,0,0,0],"split_type":[0,0,0,0,0,0,0],"sum_hessian":[6.1961846E3,4.517246E3,1.6789388E3,2.0984592E3,2.4187866E3,8.22706E2,8.562328E2],"tree_param":{"num_deleted":"0","num_feature":"106","num_nodes":"7","size_leaf_vector":"0"}},{"base_weights":[1.1269856E-1,2.1194762E-1,-1.5430185E-1,6.452367E-2,3.3976823E-1,-1.1071204E-2,-2.9175067E-1],"categories":[],"categories_nodes":[],"categories_segments":[],"categories_sizes":[],"default_left":[1,1,1,0,0,0,0],"id":63,"left_children":[1,3,5,-1,-1,-1,-1],"loss_changes":[1.6425525E2,8.511911E1,3.3069527E1,0E0,0E0,0E0,0E0],"parents":[2147483647,0,0,1,1,2,2],"right_children":[2,4,6,-1,-1,-1,-1],"split_conditions":[2.15E1,1.15E1,-5E-2,6.4523664E-4,3.3976822E-3,-1.1071204E-4,-2.9175067E-3],"split_indices":[29,80,77,0,0,0,0],"split_type":[0,0,0,0,0,0,0],"sum_hessian":[6.1961846E3,4.517246E3,1.6789388E3,2.0984592E3,2.4187866E3,8.2270605E2,8.562328E2],"tree_param":{"num_deleted":"0","num_feature":"106","num_nodes":"7","size_leaf_vector":"0"}},{"base_weights":[-1.1160875E-1,1.4734067E-1,-2.1245375E-1,-3.5849247E-2,2.4863014E-1,-5.066331E-3,-3.0321082E-1],"categories":[],"categories_nodes":[],"categories_segments":[],"categories_sizes":[],"default_left":[1,1,1,0,0,0,0],"id":64,"left_children":[1,3,5,-1,-1,-1,-1],"loss_changes":[1.6180994E2,3.223929E1,8.3928085E1,0E0,0E0,0E0,0E0],"parents":[2147483647,0,0,1,1,2,2],"right_children":[2,4,6,-1,-1,-1,-1],"split_conditions":[-2.45E0,-1.45E0,8.5E0,-3.5849246E-4,2.4863014E-3,-5.0663308E-5,-3.032108E-3],"split_indices":[25,77,103,0,0,0,0],"split_type":[0,0,0,0,0,0,0],"sum_hessian":[6.194151E3,1.7359988E3,4.458152E3,6.18336E2,1.1176628E3,1.3574113E3,3.1007407E3],"tree_param":{"num_deleted":"0","num_feature":"106","num_nodes":"7","size_leaf_vector":"0"}},{"base_weights":[1.1160874E-1,-1.4734067E-1,2.1245374E-1,3.5849232E-2,-2.4863012E-1,5.0663375E-3,3.0321082E-1],"categories":[],"categories_nodes":[],"categories_segments":[],"categories_sizes":[],"default_left":[1,1,1,0,0,0,0],"id":65,"left_children":[1,3,5,-1,-1,-1,-1],"loss_changes":[1.6180995E2,3.223928E1,8.392807E1,0E0,0E0,0E0,0E0],"parents":[2147483647,0,0,1,1,2,2],"right_children":[2,4,6,-1,-1,-1,-1],"split_conditions":[-2.45E0,-1.45E0,8.5E0,3.584923E-4,-2.4863011E-3,5.0663373E-5,3.032108E-3],"split_indices":[25,77,103,0,0,0,0],"split_type":[0,0,0,0,0,0,0],"sum_hessian":[6.194151E3,1.7359988E3,4.458152E3,6.18336E2,1.1176628E3,1.3574113E3,3.100741E3],"tree_param":{"num_deleted":"0","num_feature":"106","num_nodes":"7","size_leaf_vector":"0"}},{"base_weights":[-1.1052908E-1,-2.7496243E-1,4.627925E-2,-2.0950079E-1,-5.482354E-1,-1.6899748E-1,1.4645028E-1],"categories":[],"categories_nodes":[],"categories_segments":[],"categories_sizes":[],"default_left":[1,1,1,0,0,0,0],"id":66,"left_children":[1,3,5,-1,-1,-1,-1],"loss_changes":[1.5969977E2,5.3967026E1,6.840414E1,0E0,0E0,0E0,0E0],"parents":[2147483647,0,0,1,1,2,2],"right_children":[2,4,6,-1,-1,-1,-1],"split_conditions":[1.45E1,2.25E1,-1.95E0,-2.0950078E-3,-5.482354E-3,-1.6899748E-3,1.4645028E-3],"split_indices":[51,80,77,0,0,0,0],"split_type":[0,0,0,0,0,0,0],"sum_hessian":[6.1921367E3,3.0222122E3,3.1699246E3,2.4395847E3,5.826276E2,1.00639734E3,2.163527E3],"tree_param":{"num_deleted":"0","num_feature":"106","num_nodes":"7","size_leaf_vector":"0"}},{"base_weights":[1.1052909E-1,2.7496243E-1,-4.627924E-2,2.095008E-1,5.482354E-1,1.6899745E-1,-1.4645025E-1],"categories":[],"categories_nodes":[],"categories_segments":[],"categories_sizes":[],"default_left":[1,1,1,0,0,0,0],"id":67,"left_children":[1,3,5,-1,-1,-1,-1],"loss_changes":[1.5969977E2,5.396704E1,6.840411E1,0E0,0E0,0E0,0E0],"parents":[2147483647,0,0,1,1,2,2],"right_children":[2,4,6,-1,-1,-1,-1],"split_conditions":[1.45E1,2.25E1,-1.95E0,2.095008E-3,5.482354E-3,1.6899745E-3,-1.4645025E-3],"split_indices":[51,80,77,0,0,0,0],"split_type":[0,0,0,0,0,0,0],"sum_hessian":[6.1921367E3,3.0222122E3,3.1699246E3,2.4395847E3,5.826276E2,1.00639734E3,2.1635273E3],"tree_param":{"num_deleted":"0","num_feature":"106","num_nodes":"7","size_leaf_vector":"0"}},{"base_weights":[-1.0946302E-1,-2.0655797E-1,1.5158494E-1,-1.0395678E-1,-3.8361228E-1,-1.2303609E-1,2.2060765E-1],"categories":[],"categories_nodes":[],"categories_segments":[],"categories_sizes":[],"default_left":[1,1,1,0,0,0,0],"id":68,"left_children":[1,3,5,-1,-1,-1,-1],"loss_changes":[1.569516E2,8.194348E1,3.1852806E1,0E0,0E0,0E0,0E0],"parents":[2147483647,0,0,1,1,2,2],"right_children":[2,4,6,-1,-1,-1,-1],"split_conditions":[2.15E1,1.65E1,3.585E-1,-1.0395678E-3,-3.8361226E-3,-1.2303608E-3,2.2060764E-3],"split_indices":[29,80,55,0,0,0,0],"split_type":[0,0,0,0,0,0,0],"sum_hessian":[6.190019E3,4.512015E3,1.6780037E3,2.8576328E3,1.6543824E3,3.36879E2,1.3411246E3],"tree_param":{"num_deleted":"0","num_feature":"106","num_nodes":"7","size_leaf_vector":"0"}},{"base_weights":[1.09463036E-1,2.0655799E-1,-1.5158491E-1,1.0395679E-1,3.836123E-1,1.2303602E-1,-2.2060761E-1],"categories":[],"categories_nodes":[],"categories_segments":[],"categories_sizes":[],"default_left":[1,1,1,0,0,0,0],"id":69,"left_children":[1,3,5,-1,-1,-1,-1],"loss_changes":[1.569516E2,8.194348E1,3.1852787E1,0E0,0E0,0E0,0E0],"parents":[2147483647,0,0,1,1,2,2],"right_children":[2,4,6,-1,-1,-1,-1],"split_conditions":[2.15E1,1.65E1,3.585E-1,1.0395679E-3,3.836123E-3,1.2303601E-3,-2.206076E-3],"split_indices":[29,80,55,0,0,0,0],"split_type":[0,0,0,0,0,0,0],"sum_hessian":[6.190019E3,4.512015E3,1.6780037E3,2.8576328E3,1.6543824E3,3.3687903E2,1.3411246E3],"tree_param":{"num_deleted":"0","num_feature":"106","num_nodes":"7","size_leaf_vector":"0"}},{"base_weights":[-1.08406216E-1,-2.7050063E-1,4.6067957E-2,-2.0597598E-1,-5.4040563E-1,-8.831586E-2,2.022568E-1],"categories":[],"categories_nodes":[],"categories_segments":[],"categories_sizes":[],"default_left":[1,1,1,0,0,0,0],"id":70,"left_children":[1,3,5,-1,-1,-1,-1],"loss_changes":[1.5497932E2,5.248561E1,6.654965E1,0E0,0E0,0E0,0E0],"parents":[2147483647,0,0,1,1,2,2],"right_children":[2,4,6,-1,-1,-1,-1],"split_conditions":[1.45E1,2.25E1,5.2250004E-1,-2.0597598E-3,-5.404056E-3,-8.831586E-4,2.022568E-3],"split_indices":[51,80,55,0,0,0,0],"split_type":[0,0,0,0,0,0,0],"sum_hessian":[6.1879204E3,3.019118E3,3.1688027E3,2.438034E3,5.8108386E2,1.7035309E3,1.4652719E3],"tree_param":{"num_deleted":"0","num_feature":"106","num_nodes":"7","size_leaf_vector":"0"}},{"base_weights":[1.0840621E-1,2.7050063E-1,-4.6067957E-2,2.0597598E-1,5.404056E-1,8.831588E-2,-2.0225681E-1],"categories":[],"categories_nodes":[],"categories_segments":[],"categories_sizes":[],"default_left":[1,1,1,0,0,0,0],"id":71,"left_children":[1,3,5,-1,-1,-1,-1],"loss_changes":[1.549793E2,5.248564E1,6.654966E1,0E0,0E0,0E0,0E0],"parents":[2147483647,0,0,1,1,2,2],"right_children":[2,4,6,-1,-1,-1,-1],"split_conditions":[1.45E1,2.25E1,5.2250004E-1,2.0597598E-3,5.4040556E-3,8.831588E-4,-2.0225681E-3],"split_indices":[51,80,55,0,0,0,0],"split_type":[0,0,0,0,0,0,0],"sum_hessian":[6.1879204E3,3.019118E3,3.1688027E3,2.438034E3,5.810838E2,1.7035309E3,1.4652719E3],"tree_param":{"num_deleted":"0","num_feature":"106","num_nodes":"7","size_leaf_vector":"0"}},{"base_weights":[-1.0736031E-1,1.442266E-1,-2.0542789E-1,-3.2928865E-2,2.422328E-1,-2.2206441E-3,-2.945151E-1],"categories":[],"categories_nodes":[],"categories_segments":[],"categories_sizes":[],"default_left":[1,1,1,0,0,0,0],"id":72,"left_children":[1,3,5,-1,-1,-1,-1],"loss_changes":[1.5267378E2,3.0145546E1,8.05948E1,0E0,0E0,0E0,0E0],"parents":[2147483647,0,0,1,1,2,2],"right_children":[2,4,6,-1,-1,-1,-1],"split_conditions":[-2.45E0,-1.45E0,8.5E0,-3.2928865E-4,2.4223279E-3,-2.2206441E-5,-2.945151E-3],"split_indices":[25,77,103,0,0,0,0],"split_type":[0,0,0,0,0,0,0],"sum_hessian":[6.1858096E3,1.7348018E3,4.451008E3,6.181326E2,1.1166691E3,1.3569166E3,3.094091E3],"tree_param":{"num_deleted":"0","num_feature":"106","num_nodes":"7","size_leaf_vector":"0"}},{"base_weights":[1.0736031E-1,-1.442266E-1,2.054279E-1,3.2928802E-2,-2.4223277E-1,2.2206586E-3,2.9451513E-1],"categories":[],"categories_nodes":[],"categories_segments":[],"categories_sizes":[],"default_left":[1,1,1,0,0,0,0],"id":73,"left_children":[1,3,5,-1,-1,-1,-1],"loss_changes":[1.526738E2,3.0145523E1,8.059479E1,0E0,0E0,0E0,0E0],"parents":[2147483647,0,0,1,1,2,2],"right_children":[2,4,6,-1,-1,-1,-1],"split_conditions":[-2.45E0,-1.45E0,8.5E0,3.29288E-4,-2.4223276E-3,2.2206585E-5,2.9451512E-3],"split_indices":[25,77,103,0,0,0,0],"split_type":[0,0,0,0,0,0,0],"sum_hessian":[6.1858096E3,1.7348016E3,4.451008E3,6.181326E2,1.1166691E3,1.3569166E3,3.094091E3],"tree_param":{"num_deleted":"0","num_feature":"106","num_nodes":"7","size_leaf_vector":"0"}},{"base_weights":[-1.06324196E-1,-2.08359E-1,1.3194484E-1,-1.2342879E-1,-4.2600757E-1,3.1300494E-1,2.9153883E-2],"categories":[],"categories_nodes":[],"categories_segments":[],"categories_sizes":[],"default_left":[1,1,1,0,0,0,0],"id":74,"left_children":[1,3,5,-1,-1,-1,-1],"loss_changes":[1.503872E2,7.999959E1,3.4514637E1,0E0,0E0,0E0,0E0],"parents":[2147483647,0,0,1,1,2,2],"right_children":[2,4,6,-1,-1,-1,-1],"split_conditions":[1.95E1,1.95E1,-6.45E0,-1.2342879E-3,-4.2600757E-3,3.1300494E-3,2.9153883E-4],"split_indices":[28,80,25,0,0,0,0],"split_type":[0,0,0,0,0,0,0],"sum_hessian":[6.1836562E3,4.329671E3,1.853985E3,3.115512E3,1.2141592E3,6.7064276E2,1.1833423E3],"tree_param":{"num_deleted":"0","num_feature":"106","num_nodes":"7","size_leaf_vector":"0"}},{"base_weights":[1.0632421E-1,2.08359E-1,-1.319448E-1,1.23428784E-1,4.2600763E-1,-3.130049E-1,-2.9153863E-2],"categories":[],"categories_nodes":[],"categories_segments":[],"categories_sizes":[],"default_left":[1,1,1,0,0,0,0],"id":75,"left_children":[1,3,5,-1,-1,-1,-1],"loss_changes":[1.5038719E2,7.999963E1,3.451463E1,0E0,0E0,0E0,0E0],"parents":[2147483647,0,0,1,1,2,2],"right_children":[2,4,6,-1,-1,-1,-1],"split_conditions":[1.95E1,1.95E1,-6.45E0,1.2342879E-3,4.260076E-3,-3.130049E-3,-2.9153863E-4],"split_indices":[28,80,25,0,0,0,0],"split_type":[0,0,0,0,0,0,0],"sum_hessian":[6.1836562E3,4.329671E3,1.8539851E3,3.115512E3,1.2141592E3,6.7064276E2,1.1833423E3],"tree_param":{"num_deleted":"0","num_feature":"106","num_nodes":"7","size_leaf_vector":"0"}},{"base_weights":[-1.0529645E-1,-2.64168E-1,4.5944758E-2,-3.274229E-1,3.9659264E-3,-1.8059957E-1,1.3566722E-1],"categories":[],"categories_nodes":[],"categories_segments":[],"categories_sizes":[],"default_left":[1,1,1,0,0,0,0],"id":76,"left_children":[1,3,5,-1,-1,-1,-1],"loss_changes":[1.4856766E2,5.1144775E1,6.442218E1,0E0,0E0,0E0,0E0],"parents":[2147483647,0,0,1,1,2,2],"right_children":[2,4,6,-1,-1,-1,-1],"split_conditions":[1.45E1,5.05E0,-2.45E0,-3.274229E-3,3.9659262E-5,-1.8059957E-3,1.3566721E-3],"split_indices":[51,77,77,0,0,0,0],"split_type":[0,0,0,0,0,0,0],"sum_hessian":[6.18162E3,3.0143962E3,3.1672239E3,2.438835E3,5.7556134E2,8.982297E2,2.2689941E3],"tree_param":{"num_deleted":"0","num_feature":"106","num_nodes":"7","size_leaf_vector":"0"}},{"base_weights":[1.0529645E-1,2.6416802E-1,-4.594477E-2,3.2742292E-1,-3.965927E-3,1.8059957E-1,-1.3566723E-1],"categories":[],"categories_nodes":[],"categories_segments":[],"categories_sizes":[],"default_left":[1,1,1,0,0,0,0],"id":77,"left_children":[1,3,5,-1,-1,-1,-1],"loss_changes":[1.4856769E2,5.1144745E1,6.442219E1,0E0,0E0,0E0,0E0],"parents":[2147483647,0,0,1,1,2,2],"right_children":[2,4,6,-1,-1,-1,-1],"split_conditions":[1.45E1,5.05E0,-2.45E0,3.2742291E-3,-3.9659266E-5,1.8059957E-3,-1.3566723E-3],"split_indices":[51,77,77,0,0,0,0],"split_type":[0,0,0,0,0,0,0],"sum_hessian":[6.18162E3,3.0143962E3,3.1672239E3,2.438835E3,5.7556134E2,8.982297E2,2.2689941E3],"tree_param":{"num_deleted":"0","num_feature":"106","num_nodes":"7","size_leaf_vector":"0"}},{"base_weights":[-1.04282975E-1,-1.8612196E-1,1.843261E-1,-4.174969E-2,-3.109384E-1,6.552932E-2,3.15753E-1],"categories":[],"categories_nodes":[],"categories_segments":[],"categories_sizes":[],"default_left":[1,1,1,0,0,0,0],"id":78,"left_children":[1,3,5,-1,-1,-1,-1],"loss_changes":[1.4601079E2,8.676221E1,2.1304573E1,0E0,0E0,0E0,0E0],"parents":[2147483647,0,0,1,1,2,2],"right_children":[2,4,6,-1,-1,-1,-1],"split_conditions":[2.35E1,1.15E1,3.5000002E-1,-4.174969E-4,-3.1093839E-3,6.552932E-4,3.15753E-3],"split_indices":[51,80,77,0,0,0,0],"split_type":[0,0,0,0,0,0,0],"sum_hessian":[6.1793438E3,4.8144863E3,1.3648574E3,2.2329822E3,2.5815044E3,7.176617E2,6.4719574E2],"tree_param":{"num_deleted":"0","num_feature":"106","num_nodes":"7","size_leaf_vector":"0"}},{"base_weights":[1.0428296E-1,1.8612196E-1,-1.8432611E-1,4.1749664E-2,3.1093842E-1,-6.552934E-2,-3.15753E-1],"categories":[],"categories_nodes":[],"categories_segments":[],"categories_sizes":[],"default_left":[1,1,1,0,0,0,0],"id":79,"left_children":[1,3,5,-1,-1,-1,-1],"loss_changes":[1.4601077E2,8.676228E1,2.1304562E1,0E0,0E0,0E0,0E0],"parents":[2147483647,0,0,1,1,2,2],"right_children":[2,4,6,-1,-1,-1,-1],"split_conditions":[2.35E1,1.15E1,3.5000002E-1,4.1749663E-4,3.109384E-3,-6.5529335E-4,-3.15753E-3],"split_indices":[51,80,77,0,0,0,0],"split_type":[0,0,0,0,0,0,0],"sum_hessian":[6.1793438E3,4.8144863E3,1.3648574E3,2.2329822E3,2.5815042E3,7.176617E2,6.4719574E2],"tree_param":{"num_deleted":"0","num_feature":"106","num_nodes":"7","size_leaf_vector":"0"}},{"base_weights":[-1.03276685E-1,-2.5998944E-1,4.5797884E-2,-1.969681E-1,-5.2467495E-1,-8.457986E-2,1.973093E-1],"categories":[],"categories_nodes":[],"categories_segments":[],"categories_sizes":[],"default_left":[1,1,1,0,0,0,0],"id":80,"left_children":[1,3,5,-1,-1,-1,-1],"loss_changes":[1.4434576E2,5.0140625E1,6.257869E1,0E0,0E0,0E0,0E0],"parents":[2147483647,0,0,1,1,2,2],"right_children":[2,4,6,-1,-1,-1,-1],"split_conditions":[1.45E1,2.25E1,5.2250004E-1,-1.969681E-3,-5.2467496E-3,-8.457986E-4,1.973093E-3],"split_indices":[51,80,55,0,0,0,0],"split_type":[0,0,0,0,0,0,0],"sum_hessian":[6.1771763E3,3.0110762E3,3.1661E3,2.4334246E3,5.7765173E2,1.7019713E3,1.4641289E3],"tree_param":{"num_deleted":"0","num_feature":"106","num_nodes":"7","size_leaf_vector":"0"}},{"base_weights":[1.0327669E-1,2.5998944E-1,-4.5797866E-2,1.9696808E-1,5.246751E-1,8.457986E-2,-1.9730927E-1],"categories":[],"categories_nodes":[],"categories_segments":[],"categories_sizes":[],"default_left":[1,1,1,0,0,0,0],"id":81,"left_children":[1,3,5,-1,-1,-1,-1],"loss_changes":[1.4434578E2,5.0140656E1,6.257867E1,0E0,0E0,0E0,0E0],"parents":[2147483647,0,0,1,1,2,2],"right_children":[2,4,6,-1,-1,-1,-1],"split_conditions":[1.45E1,2.25E1,5.2250004E-1,1.9696807E-3,5.2467505E-3,8.457986E-4,-1.9730926E-3],"split_indices":[51,80,55,0,0,0,0],"split_type":[0,0,0,0,0,0,0],"sum_hessian":[6.1771763E3,3.0110762E3,3.1661E3,2.4334246E3,5.7765173E2,1.7019713E3,1.4641289E3],"tree_param":{"num_deleted":"0","num_feature":"106","num_nodes":"7","size_leaf_vector":"0"}},{"base_weights":[-1.02283E-1,-1.9437596E-1,1.4782126E-1,-1.09928355E-1,-4.0799597E-1,2.4462217E-2,2.856932E-1],"categories":[],"categories_nodes":[],"categories_segments":[],"categories_sizes":[],"default_left":[1,1,1,0,0,0,0],"id":82,"left_children":[1,3,5,-1,-1,-1,-1],"loss_changes":[1.4227744E2,8.139111E1,2.827084E1,0E0,0E0,0E0,0E0],"parents":[2147483647,0,0,1,1,2,2],"right_children":[2,4,6,-1,-1,-1,-1],"split_conditions":[2.05E1,1.95E1,5.135E-1,-1.0992836E-3,-4.07996E-3,2.4462218E-4,2.8569319E-3],"split_indices":[28,80,55,0,0,0,0],"split_type":[0,0,0,0,0,0,0],"sum_hessian":[6.174907E3,4.5132637E3,1.6616434E3,3.235665E3,1.2775986E3,8.7760016E2,7.8404333E2],"tree_param":{"num_deleted":"0","num_feature":"106","num_nodes":"7","size_leaf_vector":"0"}},{"base_weights":[1.02282986E-1,1.9437595E-1,-1.4782126E-1,1.09928325E-1,4.0799597E-1,-2.4462217E-2,-2.856932E-1],"categories":[],"categories_nodes":[],"categories_segments":[],"categories_sizes":[],"default_left":[1,1,1,0,0,0,0],"id":83,"left_children":[1,3,5,-1,-1,-1,-1],"loss_changes":[1.422774E2,8.139111E1,2.8270836E1,0E0,0E0,0E0,0E0],"parents":[2147483647,0,0,1,1,2,2],"right_children":[2,4,6,-1,-1,-1,-1],"split_conditions":[2.05E1,1.95E1,5.135E-1,1.0992832E-3,4.07996E-3,-2.4462218E-4,-2.8569319E-3],"split_indices":[28,80,55,0,0,0,0],"split_type":[0,0,0,0,0,0,0],"sum_hessian":[6.174907E3,4.5132637E3,1.6616434E3,3.2356653E3,1.2775986E3,8.776001E2,7.8404333E2],"tree_param":{"num_deleted":"0","num_feature":"106","num_nodes":"7","size_leaf_vector":"0"}},{"base_weights":[-1.0129854E-1,-2.557969E-1,4.555571E-2,-3.1804195E-1,7.4157068E-3,-1.751297E-1,1.3291441E-1],"categories":[],"categories_nodes":[],"categories_segments":[],"categories_sizes":[],"default_left":[1,1,1,0,0,0,0],"id":84,"left_children":[1,3,5,-1,-1,-1,-1],"loss_changes":[1.4008322E2,4.9295258E1,6.1059082E1,0E0,0E0,0E0,0E0],"parents":[2147483647,0,0,1,1,2,2],"right_children":[2,4,6,-1,-1,-1,-1],"split_conditions":[1.45E1,5.05E0,-2.45E0,-3.1804193E-3,7.415707E-5,-1.7512969E-3,1.3291441E-3],"split_indices":[51,77,77,0,0,0,0],"split_type":[0,0,0,0,0,0,0],"sum_hessian":[6.172615E3,3.0076587E3,3.1649563E3,2.4322637E3,5.7539496E2,8.9726984E2,2.2676865E3],"tree_param":{"num_deleted":"0","num_feature":"106","num_nodes":"7","size_leaf_vector":"0"}},{"base_weights":[1.0129855E-1,2.5579694E-1,-4.555572E-2,3.1804198E-1,-7.4156257E-3,1.7512968E-1,-1.3291441E-1],"categories":[],"categories_nodes":[],"categories_segments":[],"categories_sizes":[],"default_left":[1,1,1,0,0,0,0],"id":85,"left_children":[1,3,5,-1,-1,-1,-1],"loss_changes":[1.4008324E2,4.9295258E1,6.105907E1,0E0,0E0,0E0,0E0],"parents":[2147483647,0,0,1,1,2,2],"right_children":[2,4,6,-1,-1,-1,-1],"split_conditions":[1.45E1,5.05E0,-2.45E0,3.1804198E-3,-7.4156254E-5,1.7512968E-3,-1.3291441E-3],"split_indices":[51,77,77,0,0,0,0],"split_type":[0,0,0,0,0,0,0],"sum_hessian":[6.1726147E3,3.0076587E3,3.1649563E3,2.4322637E3,5.7539496E2,8.9726984E2,2.2676865E3],"tree_param":{"num_deleted":"0","num_feature":"106","num_nodes":"7","size_leaf_vector":"0"}},{"base_weights":[-1.0032552E-1,2.2334515E-1,-1.6962107E-1,-5.8784175E-1,2.4093977E-1,-3.7616736E-1,-8.13321E-2],"categories":[],"categories_nodes":[],"categories_segments":[],"categories_sizes":[],"default_left":[1,1,1,0,0,0,0],"id":86,"left_children":[1,3,5,-1,-1,-1,-1],"loss_changes":[1.3845184E2,1.5679604E1,9.2671936E1,0E0,0E0,0E0,0E0],"parents":[2147483647,0,0,1,1,2,2],"right_children":[2,4,6,-1,-1,-1,-1],"split_conditions":[-4.6499996E0,8.5E0,-1.95E0,-5.8784173E-3,2.4093976E-3,-3.7616736E-3,-8.13321E-4],"split_indices":[25,33,77,0,0,0,0],"split_type":[0,0,0,0,0,0,0],"sum_hessian":[6.170222E3,1.0876632E3,5.0825586E3,2.240249E1,1.0652607E3,1.5210052E3,3.5615535E3],"tree_param":{"num_deleted":"0","num_feature":"106","num_nodes":"7","size_leaf_vector":"0"}},{"base_weights":[1.00325525E-1,-2.2334513E-1,1.6962108E-1,5.8784175E-1,-2.4093975E-1,3.7616736E-1,8.133212E-2],"categories":[],"categories_nodes":[],"categories_segments":[],"categories_sizes":[],"default_left":[1,1,1,0,0,0,0],"id":87,"left_children":[1,3,5,-1,-1,-1,-1],"loss_changes":[1.3845183E2,1.5679607E1,9.267192E1,0E0,0E0,0E0,0E0],"parents":[2147483647,0,0,1,1,2,2],"right_children":[2,4,6,-1,-1,-1,-1],"split_conditions":[-4.6499996E0,8.5E0,-1.95E0,5.8784173E-3,-2.4093974E-3,3.7616736E-3,8.1332115E-4],"split_indices":[25,33,77,0,0,0,0],"split_type":[0,0,0,0,0,0,0],"sum_hessian":[6.170222E3,1.0876632E3,5.0825586E3,2.240249E1,1.0652607E3,1.5210052E3,3.5615535E3],"tree_param":{"num_deleted":"0","num_feature":"106","num_nodes":"7","size_leaf_vector":"0"}},{"base_weights":[-9.935718E-2,8.492834E-2,-2.1959375E-1,-1.4478298E-1,1.5690415E-1,-3.1022337E-1,-3.250669E-2],"categories":[],"categories_nodes":[],"categories_segments":[],"categories_sizes":[],"default_left":[1,1,1,0,0,0,0],"id":88,"left_children":[1,3,5,-1,-1,-1,-1],"loss_changes":[1.3671408E2,4.030755E1,6.3295914E1,0E0,0E0,0E0,0E0],"parents":[2147483647,0,0,1,1,2,2],"right_children":[2,4,6,-1,-1,-1,-1],"split_conditions":[4.6850002E-1,-3.25E0,2.85E0,-1.4478298E-3,1.5690414E-3,-3.1022336E-3,-3.2506688E-4],"split_indices":[3,77,77,0,0,0,0],"split_type":[0,0,0,0,0,0,0],"sum_hessian":[6.1681626E3,2.4355347E3,3.7326282E3,5.8082275E2,1.8547118E3,2.514085E3,1.2185432E3],"tree_param":{"num_deleted":"0","num_feature":"106","num_nodes":"7","size_leaf_vector":"0"}},{"base_weights":[9.935719E-2,-8.492834E-2,2.1959378E-1,1.4478296E-1,-1.5690415E-1,3.1022337E-1,3.2506704E-2],"categories":[],"categories_nodes":[],"categories_segments":[],"categories_sizes":[],"default_left":[1,1,1,0,0,0,0],"id":89,"left_children":[1,3,5,-1,-1,-1,-1],"loss_changes":[1.3671413E2,4.030754E1,6.3295944E1,0E0,0E0,0E0,0E0],"parents":[2147483647,0,0,1,1,2,2],"right_children":[2,4,6,-1,-1,-1,-1],"split_conditions":[4.6850002E-1,-3.25E0,2.85E0,1.4478295E-3,-1.5690414E-3,3.1022336E-3,3.2506703E-4],"split_indices":[3,77,77,0,0,0,0],"split_type":[0,0,0,0,0,0,0],"sum_hessian":[6.1681626E3,2.4355344E3,3.732628E3,5.8082275E2,1.8547118E3,2.5140847E3,1.2185432E3],"tree_param":{"num_deleted":"0","num_feature":"106","num_nodes":"7","size_leaf_vector":"0"}},{"base_weights":[-9.840385E-2,-2.4996066E-1,4.5490142E-2,-1.8855284E-1,-5.0910044E-1,-8.08879E-2,1.9232881E-1],"categories":[],"categories_nodes":[],"categories_segments":[],"categories_sizes":[],"default_left":[1,1,1,0,0,0,0],"id":90,"left_children":[1,3,5,-1,-1,-1,-1],"loss_changes":[1.3449554E2,4.769989E1,5.87336E1,0E0,0E0,0E0,0E0],"parents":[2147483647,0,0,1,1,2,2],"right_children":[2,4,6,-1,-1,-1,-1],"split_conditions":[1.45E1,2.25E1,5.2250004E-1,-1.8855283E-3,-5.091004E-3,-8.08879E-4,1.9232881E-3],"split_indices":[51,80,55,0,0,0,0],"split_type":[0,0,0,0,0,0,0],"sum_hessian":[6.165704E3,3.0025361E3,3.163168E3,2.428732E3,5.738041E2,1.700267E3,1.4629011E3],"tree_param":{"num_deleted":"0","num_feature":"106","num_nodes":"7","size_leaf_vector":"0"}},{"base_weights":[9.8403856E-2,2.4996068E-1,-4.549014E-2,1.8855287E-1,5.091004E-1,8.08879E-2,-1.9232881E-1],"categories":[],"categories_nodes":[],"categories_segments":[],"categories_sizes":[],"default_left":[1,1,1,0,0,0,0],"id":91,"left_children":[1,3,5,-1,-1,-1,-1],"loss_changes":[1.3449556E2,4.769989E1,5.8733593E1,0E0,0E0,0E0,0E0],"parents":[2147483647,0,0,1,1,2,2],"right_children":[2,4,6,-1,-1,-1,-1],"split_conditions":[1.45E1,2.25E1,5.2250004E-1,1.8855287E-3,5.0910036E-3,8.08879E-4,-1.9232881E-3],"split_indices":[51,80,55,0,0,0,0],"split_type":[0,0,0,0,0,0,0],"sum_hessian":[6.165704E3,3.0025361E3,3.163168E3,2.428732E3,5.73804E2,1.700267E3,1.4629011E3],"tree_param":{"num_deleted":"0","num_feature":"106","num_nodes":"7","size_leaf_vector":"0"}},{"base_weights":[-9.745933E-2,2.2002155E-1,-1.6547677E-1,-5.8304864E-1,2.374475E-1,-3.6846334E-1,-7.8887835E-2],"categories":[],"categories_nodes":[],"categories_segments":[],"categories_sizes":[],"default_left":[1,1,1,0,0,0,0],"id":92,"left_children":[1,3,5,-1,-1,-1,-1],"loss_changes":[1.331497E2,1.5365025E1,8.9210464E1,0E0,0E0,0E0,0E0],"parents":[2147483647,0,0,1,1,2,2],"right_children":[2,4,6,-1,-1,-1,-1],"split_conditions":[-4.6499996E0,8.5E0,-1.95E0,-5.8304863E-3,2.374475E-3,-3.6846332E-3,-7.8887836E-4],"split_indices":[25,33,77,0,0,0,0],"split_type":[0,0,0,0,0,0,0],"sum_hessian":[6.1632983E3,1.0870598E3,5.076239E3,2.2397936E1,1.0646619E3,1.5169244E3,3.5593142E3],"tree_param":{"num_deleted":"0","num_feature":"106","num_nodes":"7","size_leaf_vector":"0"}},{"base_weights":[9.7459316E-2,-2.2002156E-1,1.6547675E-1,5.8304864E-1,-2.374475E-1,3.684633E-1,7.8887835E-2],"categories":[],"categories_nodes":[],"categories_segments":[],"categories_sizes":[],"default_left":[1,1,1,0,0,0,0],"id":93,"left_children":[1,3,5,-1,-1,-1,-1],"loss_changes":[1.3314969E2,1.5365028E1,8.921045E1,0E0,0E0,0E0,0E0],"parents":[2147483647,0,0,1,1,2,2],"right_children":[2,4,6,-1,-1,-1,-1],"split_conditions":[-4.6499996E0,8.5E0,-1.95E0,5.8304863E-3,-2.374475E-3,3.684633E-3,7.8887836E-4],"split_indices":[25,33,77,0,0,0,0],"split_type":[0,0,0,0,0,0,0],"sum_hessian":[6.1632983E3,1.0870598E3,5.076239E3,2.2397936E1,1.0646619E3,1.5169244E3,3.5593142E3],"tree_param":{"num_deleted":"0","num_feature":"106","num_nodes":"7","size_leaf_vector":"0"}},{"base_weights":[-9.651996E-2,-1.9213508E-1,1.2613404E-1,-1.1224471E-1,-3.9842758E-1,3.000172E-1,2.7475167E-2],"categories":[],"categories_nodes":[],"categories_segments":[],"categories_sizes":[],"default_left":[1,1,1,0,0,0,0],"id":94,"left_children":[1,3,5,-1,-1,-1,-1],"loss_changes":[1.3121101E2,7.1009E1,3.1760532E1,0E0,0E0,0E0,0E0],"parents":[2147483647,0,0,1,1,2,2],"right_children":[2,4,6,-1,-1,-1,-1],"split_conditions":[1.95E1,1.95E1,-6.45E0,-1.1224471E-3,-3.9842757E-3,3.000172E-3,2.7475166E-4],"split_indices":[28,80,25,0,0,0,0],"split_type":[0,0,0,0,0,0,0],"sum_hessian":[6.1611606E3,4.3103066E3,1.8508538E3,3.1081611E3,1.2021456E3,6.692611E2,1.1815927E3],"tree_param":{"num_deleted":"0","num_feature":"106","num_nodes":"7","size_leaf_vector":"0"}},{"base_weights":[9.651995E-2,1.9213508E-1,-1.2613405E-1,1.122447E-1,3.9842758E-1,-3.0001724E-1,-2.7475175E-2],"categories":[],"categories_nodes":[],"categories_segments":[],"categories_sizes":[],"default_left":[1,1,1,0,0,0,0],"id":95,"left_children":[1,3,5,-1,-1,-1,-1],"loss_changes":[1.3121104E2,7.1009E1,3.1760529E1,0E0,0E0,0E0,0E0],"parents":[2147483647,0,0,1,1,2,2],"right_children":[2,4,6,-1,-1,-1,-1],"split_conditions":[1.95E1,1.95E1,-6.45E0,1.122447E-3,3.9842757E-3,-3.0001723E-3,-2.7475174E-4],"split_indices":[28,80,25,0,0,0,0],"split_type":[0,0,0,0,0,0,0],"sum_hessian":[6.1611606E3,4.3103066E3,1.8508538E3,3.1081611E3,1.2021455E3,6.692611E2,1.1815927E3],"tree_param":{"num_deleted":"0","num_feature":"106","num_nodes":"7","size_leaf_vector":"0"}},{"base_weights":[-9.559135E-2,-2.4439114E-1,4.5520198E-2,-3.0529344E-1,1.218916E-2,-7.891051E-2,1.9006942E-1],"categories":[],"categories_nodes":[],"categories_segments":[],"categories_sizes":[],"default_left":[1,1,1,0,0,0,0],"id":96,"left_children":[1,3,5,-1,-1,-1,-1],"loss_changes":[1.2935184E2,4.6857773E1,5.689591E1,0E0,0E0,0E0,0E0],"parents":[2147483647,0,0,1,1,2,2],"right_children":[2,4,6,-1,-1,-1,-1],"split_conditions":[1.45E1,5.05E0,5.2250004E-1,-3.0529343E-3,1.218916E-4,-7.891051E-4,1.9006942E-3],"split_indices":[51,77,55,0,0,0,0],"split_type":[0,0,0,0,0,0,0],"sum_hessian":[6.1588525E3,2.9974058E3,3.1614468E3,2.422264E3,5.7514197E2,1.6991986E3,1.4622482E3],"tree_param":{"num_deleted":"0","num_feature":"106","num_nodes":"7","size_leaf_vector":"0"}},{"base_weights":[9.559137E-2,2.4439117E-1,-4.5520198E-2,3.0529347E-1,-1.218913E-2,7.8910515E-2,-1.9006944E-1],"categories":[],"categories_nodes":[],"categories_segments":[],"categories_sizes":[],"default_left":[1,1,1,0,0,0,0],"id":97,"left_children":[1,3,5,-1,-1,-1,-1],"loss_changes":[1.2935187E2,4.6857773E1,5.689592E1,0E0,0E0,0E0,0E0],"parents":[2147483647,0,0,1,1,2,2],"right_children":[2,4,6,-1,-1,-1,-1],"split_conditions":[1.45E1,5.05E0,5.2250004E-1,3.0529345E-3,-1.218913E-4,7.8910514E-4,-1.9006943E-3],"split_indices":[51,77,55,0,0,0,0],"split_type":[0,0,0,0,0,0,0],"sum_hessian":[6.1588525E3,2.9974058E3,3.1614468E3,2.422264E3,5.75142E2,1.6991986E3,1.4622482E3],"tree_param":{"num_deleted":"0","num_feature":"106","num_nodes":"7","size_leaf_vector":"0"}},{"base_weights":[-9.467422E-2,-1.8202387E-1,1.4201762E-1,-1.01565704E-1,-3.868002E-1,2.9685348E-1,4.0331066E-2],"categories":[],"categories_nodes":[],"categories_segments":[],"categories_sizes":[],"default_left":[1,1,1,0,0,0,0],"id":98,"left_children":[1,3,5,-1,-1,-1,-1],"loss_changes":[1.27329315E2,7.406969E1,2.6130009E1,0E0,0E0,0E0,0E0],"parents":[2147483647,0,0,1,1,2,2],"right_children":[2,4,6,-1,-1,-1,-1],"split_conditions":[2.05E1,1.95E1,-6.45E0,-1.015657E-3,-3.868002E-3,2.9685348E-3,4.0331064E-4],"split_indices":[28,80,25,0,0,0,0],"split_type":[0,0,0,0,0,0,0],"sum_hessian":[6.1563794E3,4.497015E3,1.6593643E3,3.2295835E3,1.2674315E3,6.5701807E2,1.0023462E3],"tree_param":{"num_deleted":"0","num_feature":"106","num_nodes":"7","size_leaf_vector":"0"}},{"base_weights":[9.467423E-2,1.8202387E-1,-1.420176E-1,1.0156571E-1,3.8680023E-1,-2.9685348E-1,-4.033106E-2],"categories":[],"categories_nodes":[],"categories_segments":[],"categories_sizes":[],"default_left":[1,1,1,0,0,0,0],"id":99,"left_children":[1,3,5,-1,-1,-1,-1],"loss_changes":[1.27329315E2,7.40697E1,2.6130001E1,0E0,0E0,0E0,0E0],"parents":[2147483647,0,0,1,1,2,2],"right_children":[2,4,6,-1,-1,-1,-1],"split_conditions":[2.05E1,1.95E1,-6.45E0,1.0156571E-3,3.8680022E-3,-2.9685348E-3,-4.0331058E-4],"split_indices":[28,80,25,0,0,0,0],"split_type":[0,0,0,0,0,0,0],"sum_hessian":[6.1563794E3,4.497015E3,1.6593643E3,3.2295835E3,1.2674315E3,6.5701807E2,1.0023462E3],"tree_param":{"num_deleted":"0","num_feature":"106","num_nodes":"7","size_leaf_vector":"0"}},{"base_weights":[-9.37638E-2,-2.404729E-1,4.524162E-2,-2.981883E-1,2.4415325E-2,-1.6588022E-1,1.287066E-1],"categories":[],"categories_nodes":[],"categories_segments":[],"categories_sizes":[],"default_left":[1,1,1,0,0,0,0],"id":100,"left_children":[1,3,5,-1,-1,-1,-1],"loss_changes":[1.255329E2,4.579068E1,5.5728252E1,0E0,0E0,0E0,0E0],"parents":[2147483647,0,0,1,1,2,2],"right_children":[2,4,6,-1,-1,-1,-1],"split_conditions":[1.45E1,5.3500004E0,-2.45E0,-2.981883E-3,2.4415326E-4,-1.6588022E-3,1.287066E-3],"split_indices":[51,77,77,0,0,0,0],"split_type":[0,0,0,0,0,0,0],"sum_hessian":[6.154044E3,2.9937014E3,3.1603423E3,2.45801E3,5.3569135E2,8.9513684E2,2.2652053E3],"tree_param":{"num_deleted":"0","num_feature":"106","num_nodes":"7","size_leaf_vector":"0"}},{"base_weights":[9.376378E-2,2.4047287E-1,-4.5241624E-2,2.9818827E-1,-2.4415439E-2,1.658802E-1,-1.287066E-1],"categories":[],"categories_nodes":[],"categories_segments":[],"categories_sizes":[],"default_left":[1,1,1,0,0,0,0],"id":101,"left_children":[1,3,5,-1,-1,-1,-1],"loss_changes":[1.2553288E2,4.5790695E1,5.572825E1,0E0,0E0,0E0,0E0],"parents":[2147483647,0,0,1,1,2,2],"right_children":[2,4,6,-1,-1,-1,-1],"split_conditions":[1.45E1,5.3500004E0,-2.45E0,2.9818825E-3,-2.441544E-4,1.658802E-3,-1.287066E-3],"split_indices":[51,77,77,0,0,0,0],"split_type":[0,0,0,0,0,0,0],"sum_hessian":[6.154044E3,2.9937014E3,3.1603423E3,2.45801E3,5.3569135E2,8.9513684E2,2.2652053E3],"tree_param":{"num_deleted":"0","num_feature":"106","num_nodes":"7","size_leaf_vector":"0"}},{"base_weights":[-9.28658E-2,2.1370612E-1,-1.5861946E-1,-5.774457E-1,2.3088764E-1,-3.5660997E-1,-7.445076E-2],"categories":[],"categories_nodes":[],"categories_segments":[],"categories_sizes":[],"default_left":[1,1,1,0,0,0,0],"id":102,"left_children":[1,3,5,-1,-1,-1,-1],"loss_changes":[1.24057045E2,1.4908718E1,8.440486E1,0E0,0E0,0E0,0E0],"parents":[2147483647,0,0,1,1,2,2],"right_children":[2,4,6,-1,-1,-1,-1],"split_conditions":[-4.6499996E0,8.5E0,-1.95E0,-5.7744565E-3,2.3088763E-3,-3.5660996E-3,-7.445076E-4],"split_indices":[25,33,77,0,0,0,0],"split_type":[0,0,0,0,0,0,0],"sum_hessian":[6.151483E3,1.0859703E3,5.0655127E3,2.2389719E1,1.0635807E3,1.5100878E3,3.5554248E3],"tree_param":{"num_deleted":"0","num_feature":"106","num_nodes":"7","size_leaf_vector":"0"}},{"base_weights":[9.28658E-2,-2.137061E-1,1.5861946E-1,5.774457E-1,-2.3088762E-1,3.5660997E-1,7.445075E-2],"categories":[],"categories_nodes":[],"categories_segments":[],"categories_sizes":[],"default_left":[1,1,1,0,0,0,0],"id":103,"left_children":[1,3,5,-1,-1,-1,-1],"loss_changes":[1.2405703E2,1.4908714E1,8.440488E1,0E0,0E0,0E0,0E0],"parents":[2147483647,0,0,1,1,2,2],"right_children":[2,4,6,-1,-1,-1,-1],"split_conditions":[-4.6499996E0,8.5E0,-1.95E0,5.7744565E-3,-2.3088763E-3,3.5660996E-3,7.4450753E-4],"split_indices":[25,33,77,0,0,0,0],"split_type":[0,0,0,0,0,0,0],"sum_hessian":[6.151483E3,1.0859703E3,5.0655127E3,2.2389719E1,1.0635807E3,1.5100878E3,3.5554248E3],"tree_param":{"num_deleted":"0","num_feature":"106","num_nodes":"7","size_leaf_vector":"0"}},{"base_weights":[-9.197255E-2,8.0020234E-2,-2.0771681E-1,-3.9441306E-2,2.0994267E-1,-1.3472807E-3,-2.8581288E-1],"categories":[],"categories_nodes":[],"categories_segments":[],"categories_sizes":[],"default_left":[1,1,1,0,0,0,0],"id":104,"left_children":[1,3,5,-1,-1,-1,-1],"loss_changes":[1.2245035E2,3.841737E1,5.925305E1,0E0,0E0,0E0,0E0],"parents":[2147483647,0,0,1,1,2,2],"right_children":[2,4,6,-1,-1,-1,-1],"split_conditions":[4.7149998E-1,5.135E-1,7.5E0,-3.9441304E-4,2.0994267E-3,-1.3472807E-5,-2.8581289E-3],"split_indices":[3,55,103,0,0,0,0],"split_type":[0,0,0,0,0,0,0],"sum_hessian":[6.1492305E3,2.4736956E3,3.6755352E3,1.2890925E3,1.184603E3,1.0093463E3,2.6661887E3],"tree_param":{"num_deleted":"0","num_feature":"106","num_nodes":"7","size_leaf_vector":"0"}},{"base_weights":[9.197254E-2,-8.002022E-2,2.0771678E-1,3.9441314E-2,-2.0994264E-1,1.34723E-3,2.8581285E-1],"categories":[],"categories_nodes":[],"categories_segments":[],"categories_sizes":[],"default_left":[1,1,1,0,0,0,0],"id":105,"left_children":[1,3,5,-1,-1,-1,-1],"loss_changes":[1.2245031E2,3.8417366E1,5.9253067E1,0E0,0E0,0E0,0E0],"parents":[2147483647,0,0,1,1,2,2],"right_children":[2,4,6,-1,-1,-1,-1],"split_conditions":[4.7149998E-1,5.135E-1,7.5E0,3.9441313E-4,-2.0994262E-3,1.34723E-5,2.8581284E-3],"split_indices":[3,55,103,0,0,0,0],"split_type":[0,0,0,0,0,0,0],"sum_hessian":[6.1492305E3,2.4736956E3,3.6755352E3,1.2890925E3,1.184603E3,1.0093464E3,2.6661887E3],"tree_param":{"num_deleted":"0","num_feature":"106","num_nodes":"7","size_leaf_vector":"0"}},{"base_weights":[-9.1091655E-2,-3.1120896E-1,-1.6543684E-3,-3.706662E-1,-3.3907223E-2,-1.8720739E-1,9.647658E-2],"categories":[],"categories_nodes":[],"categories_segments":[],"categories_sizes":[],"default_left":[1,1,1,0,0,0,0],"id":106,"left_children":[1,3,5,-1,-1,-1,-1],"loss_changes":[1.2102643E2,2.9272537E1,7.963401E1,0E0,0E0,0E0,0E0],"parents":[2147483647,0,0,1,1,2,2],"right_children":[2,4,6,-1,-1,-1,-1],"split_conditions":[8.5E0,5.3500004E0,-1.45E0,-3.706662E-3,-3.3907223E-4,-1.8720739E-3,9.647657E-4],"split_indices":[51,77,77,0,0,0,0],"split_type":[0,0,0,0,0,0,0],"sum_hessian":[6.1466514E3,1.7751895E3,4.371462E3,1.4614896E3,3.1369983E2,1.5118466E3,2.8596155E3],"tree_param":{"num_deleted":"0","num_feature":"106","num_nodes":"7","size_leaf_vector":"0"}},{"base_weights":[9.109167E-2,3.11209E-1,1.6543762E-3,3.7066624E-1,3.3907305E-2,1.8720742E-1,-9.647658E-2],"categories":[],"categories_nodes":[],"categories_segments":[],"categories_sizes":[],"default_left":[1,1,1,0,0,0,0],"id":107,"left_children":[1,3,5,-1,-1,-1,-1],"loss_changes":[1.2102646E2,2.9272537E1,7.963402E1,0E0,0E0,0E0,0E0],"parents":[2147483647,0,0,1,1,2,2],"right_children":[2,4,6,-1,-1,-1,-1],"split_conditions":[8.5E0,5.3500004E0,-1.45E0,3.7066622E-3,3.3907304E-4,1.8720741E-3,-9.647657E-4],"split_indices":[51,77,77,0,0,0,0],"split_type":[0,0,0,0,0,0,0],"sum_hessian":[6.146652E3,1.7751895E3,4.371462E3,1.4614896E3,3.1369983E2,1.5118466E3,2.8596155E3],"tree_param":{"num_deleted":"0","num_feature":"106","num_nodes":"7","size_leaf_vector":"0"}},{"base_weights":[-9.021609E-2,2.110436E-1,-1.5487428E-1,-5.723242E-1,2.2806133E-1,-3.494572E-1,-7.233126E-2],"categories":[],"categories_nodes":[],"categories_segments":[],"categories_sizes":[],"default_left":[1,1,1,0,0,0,0],"id":108,"left_children":[1,3,5,-1,-1,-1,-1],"loss_changes":[1.1973714E2,1.4612324E1,8.124612E1,0E0,0E0,0E0,0E0],"parents":[2147483647,0,0,1,1,2,2],"right_children":[2,4,6,-1,-1,-1,-1],"split_conditions":[-4.6499996E0,8.5E0,-1.95E0,-5.723242E-3,2.2806132E-3,-3.494572E-3,-7.2331255E-4],"split_indices":[25,33,77,0,0,0,0],"split_type":[0,0,0,0,0,0,0],"sum_hessian":[6.144338E3,1.0853127E3,5.0590254E3,2.2382046E1,1.0629307E3,1.5058868E3,3.5531384E3],"tree_param":{"num_deleted":"0","num_feature":"106","num_nodes":"7","size_leaf_vector":"0"}},{"base_weights":[9.021609E-2,-2.110436E-1,1.5487427E-1,5.723242E-1,-2.2806135E-1,3.494572E-1,7.233125E-2],"categories":[],"categories_nodes":[],"categories_segments":[],"categories_sizes":[],"default_left":[1,1,1,0,0,0,0],"id":109,"left_children":[1,3,5,-1,-1,-1,-1],"loss_changes":[1.1973714E2,1.4612328E1,8.124613E1,0E0,0E0,0E0,0E0],"parents":[2147483647,0,0,1,1,2,2],"right_children":[2,4,6,-1,-1,-1,-1],"split_conditions":[-4.6499996E0,8.5E0,-1.95E0,5.723242E-3,-2.2806134E-3,3.494572E-3,7.233125E-4],"split_indices":[25,33,77,0,0,0,0],"split_type":[0,0,0,0,0,0,0],"sum_hessian":[6.144338E3,1.0853127E3,5.0590254E3,2.2382046E1,1.0629307E3,1.5058868E3,3.5531384E3],"tree_param":{"num_deleted":"0","num_feature":"106","num_nodes":"7","size_leaf_vector":"0"}},{"base_weights":[-8.9349225E-2,-3.0705175E-1,-9.789331E-4,-3.6593965E-1,-3.2851875E-2,-1.8368778E-1,9.555644E-2],"categories":[],"categories_nodes":[],"categories_segments":[],"categories_sizes":[],"default_left":[1,1,1,0,0,0,0],"id":110,"left_children":[1,3,5,-1,-1,-1,-1],"loss_changes":[1.18181946E2,2.8626892E1,7.710203E1,0E0,0E0,0E0,0E0],"parents":[2147483647,0,0,1,1,2,2],"right_children":[2,4,6,-1,-1,-1,-1],"split_conditions":[8.5E0,5.3500004E0,-1.45E0,-3.6593964E-3,-3.2851874E-4,-1.8368777E-3,9.555644E-4],"split_indices":[51,77,77,0,0,0,0],"split_type":[0,0,0,0,0,0,0],"sum_hessian":[6.1420283E3,1.7726311E3,4.3693975E3,1.4589652E3,3.1366592E2,1.5101987E3,2.8591987E3],"tree_param":{"num_deleted":"0","num_feature":"106","num_nodes":"7","size_leaf_vector":"0"}},{"base_weights":[8.934924E-2,3.0705175E-1,9.789423E-4,3.6593965E-1,3.285191E-2,1.8368778E-1,-9.555642E-2],"categories":[],"categories_nodes":[],"categories_segments":[],"categories_sizes":[],"default_left":[1,1,1,0,0,0,0],"id":111,"left_children":[1,3,5,-1,-1,-1,-1],"loss_changes":[1.18181946E2,2.8626892E1,7.710203E1,0E0,0E0,0E0,0E0],"parents":[2147483647,0,0,1,1,2,2],"right_children":[2,4,6,-1,-1,-1,-1],"split_conditions":[8.5E0,5.3500004E0,-1.45E0,3.6593964E-3,3.285191E-4,1.8368777E-3,-9.555642E-4],"split_indices":[51,77,77,0,0,0,0],"split_type":[0,0,0,0,0,0,0],"sum_hessian":[6.1420283E3,1.7726311E3,4.3693975E3,1.4589652E3,3.1366592E2,1.5101987E3,2.8591987E3],"tree_param":{"num_deleted":"0","num_feature":"106","num_nodes":"7","size_leaf_vector":"0"}},{"base_weights":[-8.8491075E-2,-1.7295177E-1,1.372246E-1,2.6400259E-2,-2.4606955E-1,-1.1065941E-1,1.9967864E-1],"categories":[],"categories_nodes":[],"categories_segments":[],"categories_sizes":[],"default_left":[1,1,1,0,0,0,0],"id":112,"left_children":[1,3,5,-1,-1,-1,-1],"loss_changes":[1.1709013E2,6.514766E1,2.5917084E1,0E0,0E0,0E0,0E0],"parents":[2147483647,0,0,1,1,2,2],"right_children":[2,4,6,-1,-1,-1,-1],"split_conditions":[2.15E1,7.5E0,3.585E-1,2.640026E-4,-2.4606953E-3,-1.1065941E-3,1.9967863E-3],"split_indices":[29,103,55,0,0,0,0],"split_type":[0,0,0,0,0,0,0],"sum_hessian":[6.139672E3,4.468016E3,1.671656E3,1.1991719E3,3.2688442E3,3.362574E2,1.3353986E3],"tree_param":{"num_deleted":"0","num_feature":"106","num_nodes":"7","size_leaf_vector":"0"}},{"base_weights":[8.849107E-2,1.7295176E-1,-1.3722461E-1,-2.640028E-2,2.4606954E-1,1.1065942E-1,-1.9967866E-1],"categories":[],"categories_nodes":[],"categories_segments":[],"categories_sizes":[],"default_left":[1,1,1,0,0,0,0],"id":113,"left_children":[1,3,5,-1,-1,-1,-1],"loss_changes":[1.1709013E2,6.514766E1,2.5917086E1,0E0,0E0,0E0,0E0],"parents":[2147483647,0,0,1,1,2,2],"right_children":[2,4,6,-1,-1,-1,-1],"split_conditions":[2.15E1,7.5E0,3.585E-1,-2.640028E-4,2.4606953E-3,1.1065942E-3,-1.9967866E-3],"split_indices":[29,103,55,0,0,0,0],"split_type":[0,0,0,0,0,0,0],"sum_hessian":[6.139672E3,4.468016E3,1.671656E3,1.1991719E3,3.2688442E3,3.362574E2,1.3353986E3],"tree_param":{"num_deleted":"0","num_feature":"106","num_nodes":"7","size_leaf_vector":"0"}},{"base_weights":[-8.7642916E-2,-2.2873268E-1,4.56794E-2,-1.7052029E-1,-4.7721443E-1,-7.199895E-2,1.8385962E-1],"categories":[],"categories_nodes":[],"categories_segments":[],"categories_sizes":[],"default_left":[1,1,1,0,0,0,0],"id":114,"left_children":[1,3,5,-1,-1,-1,-1],"loss_changes":[1.15471344E2,4.3057663E1,5.1344975E1,0E0,0E0,0E0,0E0],"parents":[2147483647,0,0,1,1,2,2],"right_children":[2,4,6,-1,-1,-1,-1],"split_conditions":[1.45E1,2.25E1,5.245E-1,-1.7052029E-3,-4.7721444E-3,-7.199895E-4,1.8385961E-3],"split_indices":[51,80,55,0,0,0,0],"split_type":[0,0,0,0,0,0,0],"sum_hessian":[6.137137E3,2.9813628E3,3.1557747E3,2.4168484E3,5.645144E2,1.7045815E3,1.4511931E3],"tree_param":{"num_deleted":"0","num_feature":"106","num_nodes":"7","size_leaf_vector":"0"}},{"base_weights":[8.764291E-2,2.2873268E-1,-4.567941E-2,1.7052029E-1,4.7721446E-1,7.199894E-2,-1.8385962E-1],"categories":[],"categories_nodes":[],"categories_segments":[],"categories_sizes":[],"default_left":[1,1,1,0,0,0,0],"id":115,"left_children":[1,3,5,-1,-1,-1,-1],"loss_changes":[1.1547137E2,4.3057663E1,5.1344975E1,0E0,0E0,0E0,0E0],"parents":[2147483647,0,0,1,1,2,2],"right_children":[2,4,6,-1,-1,-1,-1],"split_conditions":[1.45E1,2.25E1,5.245E-1,1.7052029E-3,4.7721444E-3,7.1998936E-4,-1.8385961E-3],"split_indices":[51,80,55,0,0,0,0],"split_type":[0,0,0,0,0,0,0],"sum_hessian":[6.137137E3,2.9813628E3,3.1557747E3,2.4168484E3,5.645144E2,1.7045815E3,1.4511931E3],"tree_param":{"num_deleted":"0","num_feature":"106","num_nodes":"7","size_leaf_vector":"0"}},{"base_weights":[-8.680506E-2,2.0766917E-1,-1.5006417E-1,-5.6718874E-1,2.2450803E-1,3.7537504E-2,-2.319176E-1],"categories":[],"categories_nodes":[],"categories_segments":[],"categories_sizes":[],"default_left":[1,1,1,0,0,0,0],"id":116,"left_children":[1,3,5,-1,-1,-1,-1],"loss_changes":[1.1432454E2,1.4289101E1,7.7573074E1,0E0,0E0,0E0,0E0],"parents":[2147483647,0,0,1,1,2,2],"right_children":[2,4,6,-1,-1,-1,-1],"split_conditions":[-4.6499996E0,8.5E0,8.5E0,-5.671887E-3,2.2450802E-3,3.7537504E-4,-2.319176E-3],"split_indices":[25,33,103,0,0,0,0],"split_type":[0,0,0,0,0,0,0],"sum_hessian":[6.1345103E3,1.0843811E3,5.0501294E3,2.236892E1,1.0620122E3,1.534262E3,3.5158672E3],"tree_param":{"num_deleted":"0","num_feature":"106","num_nodes":"7","size_leaf_vector":"0"}},{"base_weights":[8.680507E-2,-2.0766915E-1,1.5006417E-1,5.6718874E-1,-2.2450802E-1,-3.75375E-2,2.319176E-1],"categories":[],"categories_nodes":[],"categories_segments":[],"categories_sizes":[],"default_left":[1,1,1,0,0,0,0],"id":117,"left_children":[1,3,5,-1,-1,-1,-1],"loss_changes":[1.14324524E2,1.4289101E1,7.757306E1,0E0,0E0,0E0,0E0],"parents":[2147483647,0,0,1,1,2,2],"right_children":[2,4,6,-1,-1,-1,-1],"split_conditions":[-4.6499996E0,8.5E0,8.5E0,5.671887E-3,-2.2450802E-3,-3.75375E-4,2.319176E-3],"split_indices":[25,33,103,0,0,0,0],"split_type":[0,0,0,0,0,0,0],"sum_hessian":[6.1345103E3,1.0843811E3,5.0501294E3,2.236892E1,1.0620122E3,1.5342621E3,3.5158672E3],"tree_param":{"num_deleted":"0","num_feature":"106","num_nodes":"7","size_leaf_vector":"0"}},{"base_weights":[-8.5969925E-2,-2.9940894E-1,5.201563E-4,-3.5715044E-1,-3.1419553E-2,-1.7821799E-1,9.4842196E-2],"categories":[],"categories_nodes":[],"categories_segments":[],"categories_sizes":[],"default_left":[1,1,1,0,0,0,0],"id":118,"left_children":[1,3,5,-1,-1,-1,-1],"loss_changes":[1.13222115E2,2.7356857E1,7.3616516E1,0E0,0E0,0E0,0E0],"parents":[2147483647,0,0,1,1,2,2],"right_children":[2,4,6,-1,-1,-1,-1],"split_conditions":[8.5E0,5.3500004E0,-1.45E0,-3.5715043E-3,-3.1419552E-4,-1.7821799E-3,9.4842195E-4],"split_indices":[51,77,77,0,0,0,0],"split_type":[0,0,0,0,0,0,0],"sum_hessian":[6.1322485E3,1.7676368E3,4.364612E3,1.4540186E3,3.136183E2,1.5073423E3,2.8572693E3],"tree_param":{"num_deleted":"0","num_feature":"106","num_nodes":"7","size_leaf_vector":"0"}},{"base_weights":[8.596991E-2,2.994089E-1,-5.201628E-4,3.571504E-1,3.1419523E-2,1.7821799E-1,-9.484221E-2],"categories":[],"categories_nodes":[],"categories_segments":[],"categories_sizes":[],"default_left":[1,1,1,0,0,0,0],"id":119,"left_children":[1,3,5,-1,-1,-1,-1],"loss_changes":[1.132221E2,2.7356873E1,7.3616516E1,0E0,0E0,0E0,0E0],"parents":[2147483647,0,0,1,1,2,2],"right_children":[2,4,6,-1,-1,-1,-1],"split_conditions":[8.5E0,5.3500004E0,-1.45E0,3.571504E-3,3.1419523E-4,1.7821799E-3,-9.4842206E-4],"split_indices":[51,77,77,0,0,0,0],"split_type":[0,0,0,0,0,0,0],"sum_hessian":[6.1322485E3,1.7676368E3,4.3646113E3,1.4540186E3,3.136183E2,1.5073423E3,2.8572693E3],"tree_param":{"num_deleted":"0","num_feature":"106","num_nodes":"7","size_leaf_vector":"0"}},{"base_weights":[-8.514523E-2,-1.7373201E-1,1.20323524E-1,-9.9183686E-2,-3.6816293E-1,2.8508398E-1,2.6940996E-2],"categories":[],"categories_nodes":[],"categories_segments":[],"categories_sizes":[],"default_left":[1,1,1,0,0,0,0],"id":120,"left_children":[1,3,5,-1,-1,-1,-1],"loss_changes":[1.1161305E2,6.206183E1,2.8418335E1,0E0,0E0,0E0,0E0],"parents":[2147483647,0,0,1,1,2,2],"right_children":[2,4,6,-1,-1,-1,-1],"split_conditions":[1.95E1,1.95E1,-6.45E0,-9.918369E-4,-3.6816292E-3,2.8508396E-3,2.6940994E-4],"split_indices":[28,80,25,0,0,0,0],"split_type":[0,0,0,0,0,0,0],"sum_hessian":[6.1298247E3,4.28327E3,1.846555E3,3.0972417E3,1.1860282E3,6.672437E2,1.1793114E3],"tree_param":{"num_deleted":"0","num_feature":"106","num_nodes":"7","size_leaf_vector":"0"}},{"base_weights":[8.514523E-2,1.7373201E-1,-1.2032353E-1,9.918369E-2,3.6816293E-1,-2.8508395E-1,-2.6941013E-2],"categories":[],"categories_nodes":[],"categories_segments":[],"categories_sizes":[],"default_left":[1,1,1,0,0,0,0],"id":121,"left_children":[1,3,5,-1,-1,-1,-1],"loss_changes":[1.1161307E2,6.206183E1,2.8418325E1,0E0,0E0,0E0,0E0],"parents":[2147483647,0,0,1,1,2,2],"right_children":[2,4,6,-1,-1,-1,-1],"split_conditions":[1.95E1,1.95E1,-6.45E0,9.918369E-4,3.6816292E-3,-2.8508394E-3,-2.694101E-4],"split_indices":[28,80,25,0,0,0,0],"split_type":[0,0,0,0,0,0,0],"sum_hessian":[6.129825E3,4.28327E3,1.846555E3,3.0972417E3,1.1860282E3,6.672437E2,1.1793114E3],"tree_param":{"num_deleted":"0","num_feature":"106","num_nodes":"7","size_leaf_vector":"0"}},{"base_weights":[-8.432933E-2,5.2666953E-3,-2.8542635E-1,-1.8790637E-1,9.17091E-2,-3.4369138E-1,-2.3230718E-2],"categories":[],"categories_nodes":[],"categories_segments":[],"categories_sizes":[],"default_left":[1,1,1,0,0,0,0],"id":122,"left_children":[1,3,5,-1,-1,-1,-1],"loss_changes":[1.10418015E2,7.082561E1,2.8847672E1,0E0,0E0,0E0,0E0],"parents":[2147483647,0,0,1,1,2,2],"right_children":[2,4,6,-1,-1,-1,-1],"split_conditions":[2.85E0,-1.95E0,5.3500004E0,-1.8790637E-3,9.17091E-4,-3.4369137E-3,-2.3230718E-4],"split_indices":[25,77,77,0,0,0,0],"split_type":[0,0,0,0,0,0,0],"sum_hessian":[6.1272944E3,4.239443E3,1.8878518E3,1.31025E3,2.9291929E3,1.5443551E3,3.4349677E2],"tree_param":{"num_deleted":"0","num_feature":"106","num_nodes":"7","size_leaf_vector":"0"}},{"base_weights":[8.432933E-2,-5.26669E-3,2.8542635E-1,1.8790637E-1,-9.170909E-2,3.4369138E-1,2.3230651E-2],"categories":[],"categories_nodes":[],"categories_segments":[],"categories_sizes":[],"default_left":[1,1,1,0,0,0,0],"id":123,"left_children":[1,3,5,-1,-1,-1,-1],"loss_changes":[1.10418E2,7.08256E1,2.8847687E1,0E0,0E0,0E0,0E0],"parents":[2147483647,0,0,1,1,2,2],"right_children":[2,4,6,-1,-1,-1,-1],"split_conditions":[2.85E0,-1.95E0,5.3500004E0,1.8790637E-3,-9.170909E-4,3.4369137E-3,2.3230651E-4],"split_indices":[25,77,77,0,0,0,0],"split_type":[0,0,0,0,0,0,0],"sum_hessian":[6.1272944E3,4.239443E3,1.8878518E3,1.31025E3,2.9291929E3,1.5443551E3,3.434968E2],"tree_param":{"num_deleted":"0","num_feature":"106","num_nodes":"7","size_leaf_vector":"0"}},{"base_weights":[-8.3521284E-2,2.041145E-1,-1.4536552E-1,-5.614322E-1,2.2075675E-1,3.809558E-2,-2.2557782E-1],"categories":[],"categories_nodes":[],"categories_segments":[],"categories_sizes":[],"default_left":[1,1,1,0,0,0,0],"id":124,"left_children":[1,3,5,-1,-1,-1,-1],"loss_changes":[1.0899931E2,1.3940216E1,7.42112E1,0E0,0E0,0E0,0E0],"parents":[2147483647,0,0,1,1,2,2],"right_children":[2,4,6,-1,-1,-1,-1],"split_conditions":[-4.6499996E0,8.5E0,8.5E0,-5.6143217E-3,2.2075674E-3,3.8095578E-4,-2.255778E-3],"split_indices":[25,33,103,0,0,0,0],"split_type":[0,0,0,0,0,0,0],"sum_hessian":[6.1248076E3,1.0834432E3,5.0413643E3,2.2355406E1,1.0610878E3,1.5337974E3,3.5075671E3],"tree_param":{"num_deleted":"0","num_feature":"106","num_nodes":"7","size_leaf_vector":"0"}},{"base_weights":[8.3521284E-2,-2.0411451E-1,1.4536552E-1,5.614322E-1,-2.2075677E-1,-3.809557E-2,2.2557782E-1],"categories":[],"categories_nodes":[],"categories_segments":[],"categories_sizes":[],"default_left":[1,1,1,0,0,0,0],"id":125,"left_children":[1,3,5,-1,-1,-1,-1],"loss_changes":[1.0899931E2,1.3940208E1,7.421118E1,0E0,0E0,0E0,0E0],"parents":[2147483647,0,0,1,1,2,2],"right_children":[2,4,6,-1,-1,-1,-1],"split_conditions":[-4.6499996E0,8.5E0,8.5E0,5.6143217E-3,-2.2075677E-3,-3.809557E-4,2.255778E-3],"split_indices":[25,33,103,0,0,0,0],"split_type":[0,0,0,0,0,0,0],"sum_hessian":[6.1248076E3,1.0834432E3,5.0413643E3,2.2355406E1,1.0610878E3,1.5337974E3,3.5075671E3],"tree_param":{"num_deleted":"0","num_feature":"106","num_nodes":"7","size_leaf_vector":"0"}},{"base_weights":[-8.271856E-2,-2.914993E-1,1.7071054E-3,-3.4798023E-1,-3.030258E-2,-1.866418E-1,8.689858E-2],"categories":[],"categories_nodes":[],"categories_segments":[],"categories_sizes":[],"default_left":[1,1,1,0,0,0,0],"id":126,"left_children":[1,3,5,-1,-1,-1,-1],"loss_changes":[1.0793587E2,2.6001328E1,6.999626E1,0E0,0E0,0E0,0E0],"parents":[2147483647,0,0,1,1,2,2],"right_children":[2,4,6,-1,-1,-1,-1],"split_conditions":[8.5E0,5.3500004E0,-1.95E0,-3.4798023E-3,-3.030258E-4,-1.8664179E-3,8.689858E-4],"split_indices":[51,77,77,0,0,0,0],"split_type":[0,0,0,0,0,0,0],"sum_hessian":[6.1224893E3,1.7621996E3,4.3602896E3,1.4486191E3,3.1358035E2,1.3575986E3,3.002691E3],"tree_param":{"num_deleted":"0","num_feature":"106","num_nodes":"7","size_leaf_vector":"0"}},{"base_weights":[8.2718566E-2,2.9149932E-1,-1.7071111E-3,3.4798023E-1,3.030266E-2,1.8664177E-1,-8.689857E-2],"categories":[],"categories_nodes":[],"categories_segments":[],"categories_sizes":[],"default_left":[1,1,1,0,0,0,0],"id":127,"left_children":[1,3,5,-1,-1,-1,-1],"loss_changes":[1.0793593E2,2.6001266E1,6.999624E1,0E0,0E0,0E0,0E0],"parents":[2147483647,0,0,1,1,2,2],"right_children":[2,4,6,-1,-1,-1,-1],"split_conditions":[8.5E0,5.3500004E0,-1.95E0,3.4798023E-3,3.030266E-4,1.8664176E-3,-8.689857E-4],"split_indices":[51,77,77,0,0,0,0],"split_type":[0,0,0,0,0,0,0],"sum_hessian":[6.1224893E3,1.7621996E3,4.3602896E3,1.4486193E3,3.1358032E2,1.3575986E3,3.002691E3],"tree_param":{"num_deleted":"0","num_feature":"106","num_nodes":"7","size_leaf_vector":"0"}},{"base_weights":[-8.192604E-2,-1.6225891E-1,1.3480093E-1,-9.7628094E-2,